// #### Generated By: http://www.cufonfonts.com ####
/*!
 * The following copyright notice may not be removed under any circumstances.
 * 
 * Copyright:
 * Enigmatic Italic ©2002 by Starving-4 Entertainment, dart@puzzlers.org This font
 * is licensed under the terms of the Design Science Licence:
 * http://dsl.org/copyleft/dsl.txt
 * 
 * Description:
 * I created this font in FCP's thirty day trial. Since then it's undergone a
 * number of renovations, and it's looking pretty good.
 * 
 * Manufacturer:
 * Starving-4 Entertainment
 * 
 * Designer:
 * Darren Rigby
 * 
 * Vendor URL:
 * http://dartcanada.tripod.com/Objets
 */
Cufon.registerFont({"w":1200,"face":{"font-family":"Enigmatic Italic","font-weight":400,"font-style":"italic","font-stretch":"normal","units-per-em":"2400","panose-1":"2 0 0 0 0 0 0 0 0 0","ascent":"1920","descent":"-480","x-height":"25","bbox":"-410 -2200 2040 475","underline-thickness":"48","underline-position":"-140","unicode-range":"U+0020-U+0131"},"glyphs":{" ":{"w":600},"!":{"d":"120,-375r310,-1425r-250,0r-250,1425r190,0xm-55,0v83,0,133,-42,150,-125v17,-83,-17,-125,-100,-125v-83,0,-133,42,-150,125v-17,83,17,125,100,125","w":450},"\"":{"d":"460,-1500r50,0v73,-100,131,-181,150,-250v27,-98,-12,-150,-95,-150v-83,0,-155,48,-155,150v0,67,17,150,50,250xm60,-1500r50,0v73,-100,131,-181,150,-250v27,-98,-12,-150,-95,-150v-83,0,-155,48,-155,150v0,67,17,150,50,250","w":750},"#":{"d":"100,0r250,0r90,-400r350,0r-90,400r250,0r90,-400r210,0r0,-150r-180,0r160,-700r220,0r0,-150r-190,0r90,-400r-250,0r-90,400r-350,0r90,-400r-250,0r-90,400r-210,0r0,150r175,0r-150,700r-225,0r0,150r190,0xm475,-550r150,-700r350,0r-155,700r-345,0","w":1400},"$":{"d":"714,-1060r93,-465v150,0,213,58,190,175r-20,100r250,0v63,-317,-63,-475,-380,-475r25,-125r-150,0r-25,125v-317,0,-512,183,-585,550v-33,167,88,275,365,325r44,7r-99,493v-150,0,-213,-58,-190,-175r20,-100r-250,0v-63,317,63,475,380,475r-35,175r150,0r35,-175v317,0,510,-175,580,-525v40,-200,-78,-325,-355,-375xm382,-1275v37,-166,125,-250,275,-250r-89,445v-128,-13,-212,-80,-186,-195xm666,-820v122,21,197,83,171,195v-43,182,-125,275,-265,275","w":1300},"%":{"d":"1410,-450v57,-283,-32,-425,-265,-425v-233,0,-378,142,-435,425r-20,100v-50,250,42,375,275,375v233,0,375,-125,425,-375xm1225,-400v-37,183,-113,275,-230,275v-117,0,-163,-58,-140,-175r20,-100v43,-217,123,-325,240,-325v117,0,160,75,130,225xm1405,-1800r-1585,1800r275,0r1585,-1800r-275,0xm800,-1400v57,-283,-32,-425,-265,-425v-233,0,-378,142,-435,425r-20,100v-50,250,42,375,275,375v233,0,375,-125,425,-375xm615,-1350v-37,183,-113,275,-230,275v-117,0,-163,-58,-140,-175r20,-100v43,-217,123,-325,240,-325v117,0,160,75,130,225","w":1700},"&":{"d":"745,-1625v-181,0,-270,63,-290,200v-7,50,7,105,39,174r412,896v73,-92,81,-260,114,-395r250,0r-70,350v-20,93,-67,173,-142,240r95,160r-309,0r-22,-32v-88,38,-224,57,-407,57v-400,0,-568,-158,-505,-475r90,-450v30,-150,120,-225,270,-225v-95,-107,-81,-237,-50,-375v48,-216,232,-325,565,-325v333,0,478,108,435,325r-50,250r-250,0r40,-200v23,-117,-48,-175,-215,-175xm170,-500v-43,217,52,325,285,325v103,0,183,-15,239,-45r-289,-705v-90,-50,-148,-8,-175,125","w":1500},"'":{"d":"115,-1550v-10,50,-57,75,-140,75r-15,75v167,0,268,-92,305,-275v17,-83,-17,-125,-100,-125v-83,0,-133,42,-150,125v-17,83,17,125,100,125","w":450},"(":{"d":"845,-2000v-430,67,-712,433,-845,1100v-133,667,2,1033,405,1100r40,-200v-230,-100,-295,-400,-195,-900v100,-500,285,-800,555,-900","w":825},")":{"d":"-220,200v430,-67,712,-433,845,-1100v133,-667,-2,-1033,-405,-1100r-40,200v230,100,295,400,195,900v-100,500,-285,800,-555,900","w":795},"*":{"d":"160,-1431r-161,-130r55,-104r227,5r110,-218r109,0r22,219r229,-5r13,104r-214,130r32,216r-101,64r-154,-139r-209,138r-76,-64","w":780},"+":{"d":"320,-400r80,-400r-400,0r40,-200r400,0r80,-400r200,0r-80,400r400,0r-40,200r-400,0r-80,400r-200,0","w":1050},",":{"d":"125,0v-23,117,-77,175,-160,175r-15,75v167,0,275,-125,325,-375v17,-83,-17,-125,-100,-125v-83,0,-133,42,-150,125v-17,83,17,125,100,125","w":450},"-":{"d":"1000,-800r40,-200r-1000,0r-40,200r1000,0","w":1020},"\u2010":{"d":"1000,-800r40,-200r-1000,0r-40,200r1000,0","w":1020},".":{"d":"246,4v82,0,132,-42,149,-127v17,-85,-16,-128,-98,-128v-82,0,-131,43,-148,128v-17,85,15,127,97,127","w":546},"\/":{"d":"1390,-1850r-1430,1900r-250,0r1430,-1900r250,0"},"0":{"d":"870,-1050v-117,583,-263,875,-440,875v-177,0,-243,-108,-200,-325r50,-250v117,-583,263,-875,440,-875v177,0,247,92,210,275xm1150,-1200v83,-417,-47,-625,-390,-625v-343,0,-580,325,-710,975r-50,250v-83,417,47,625,390,625v343,0,580,-325,710,-975","w":1300},"1":{"d":"480,-1650r-40,200r290,0r-290,1450r250,0r360,-1800r-250,0v-20,100,-127,150,-320,150","w":1300},"2":{"d":"942,-1375v32,-167,-50,-250,-250,-250v-200,0,-325,125,-375,375r-250,0r30,-150v57,-283,268,-425,635,-425v367,0,513,175,445,525v-39,200,-251,383,-650,525v-211,75,-343,208,-390,425r-30,150r850,0r-40,200r-1100,0r80,-400v57,-267,281,-470,675,-600v212,-70,335,-192,370,-375","w":1300},"3":{"d":"695,-1625v200,0,282,92,245,275v-40,200,-143,300,-310,300r-200,0r-40,200r200,0v167,0,237,67,210,200v-63,317,-195,475,-395,475v-200,0,-282,-92,-245,-275r20,-100r-250,0v-77,383,68,575,435,575v367,0,588,-192,665,-575v47,-233,-10,-367,-170,-400v180,-67,283,-167,310,-300v77,-383,-68,-575,-435,-575v-367,0,-582,158,-645,475r-20,100r250,0v50,-250,175,-375,375,-375","w":1300},"4":{"d":"1130,-550r-110,0r250,-1250r-250,0r-990,1250r-40,200r740,0r-70,350r250,0r70,-350r110,0xm270,-550r677,-885r-177,885r-500,0","w":1300},"5":{"d":"182,-1800r-190,950r250,0r20,-100v23,-117,135,-175,335,-175v200,0,288,58,265,175r-30,150v-83,417,-225,625,-425,625v-200,0,-285,-75,-255,-225r30,-150r-250,0v-77,383,68,575,435,575v367,0,595,-225,685,-675r30,-150v70,-350,-37,-525,-320,-525v-283,0,-438,67,-465,200r95,-475r850,0r40,-200r-1100,0","w":1300},"6":{"d":"-60,-600r140,-700v70,-350,288,-525,655,-525v367,0,512,192,435,575r-250,0r20,-100v37,-183,-45,-275,-245,-275v-200,0,-328,142,-385,425r-55,275v27,-133,182,-200,465,-200v283,0,390,175,320,525v-83,417,-308,625,-675,625v-367,0,-508,-208,-425,-625xm170,-500v-43,217,35,325,235,325v200,0,335,-175,405,-525v30,-150,-55,-225,-255,-225v-200,0,-328,142,-385,425","w":1300},"7":{"d":"230,-1800r-40,200r812,0v-273,195,-471,416,-594,666v-123,250,-256,561,-400,934r252,0v65,-194,169,-450,310,-768v141,-318,345,-581,612,-792r48,-240r-1000,0","w":1300},"8":{"d":"260,-950v-180,67,-290,200,-330,400v-77,383,68,575,435,575v367,0,582,-158,645,-475v60,-300,10,-467,-150,-500v180,-67,287,-183,320,-350v70,-350,-78,-525,-445,-525v-367,0,-578,142,-635,425v-53,267,0,417,160,450xm330,-1300v43,-217,165,-325,365,-325v200,0,285,75,255,225v-47,233,-170,350,-370,350v-200,0,-283,-83,-250,-250xm780,-550v-50,250,-175,375,-375,375v-200,0,-282,-92,-245,-275v53,-267,180,-400,380,-400v200,0,280,100,240,300","w":1300},"9":{"d":"1170,-1250r-130,650v-83,417,-308,625,-675,625v-367,0,-512,-192,-435,-575r250,0r-20,100v-37,183,45,275,245,275v200,0,338,-192,415,-575r25,-125v-27,133,-182,200,-465,200v-283,0,-387,-192,-310,-575v77,-383,298,-575,665,-575v367,0,512,192,435,575xm940,-1350v37,-183,-45,-275,-245,-275v-200,0,-332,158,-395,475v-37,183,45,275,245,275v200,0,332,-158,395,-475","w":1300},":":{"d":"175,-750v83,0,133,-42,150,-125v17,-83,-17,-125,-100,-125v-83,0,-133,42,-150,125v-17,83,17,125,100,125xm25,0v83,0,133,-42,150,-125v17,-83,-17,-125,-100,-125v-83,0,-133,42,-150,125v-17,83,17,125,100,125","w":450},";":{"d":"200,-750v83,0,133,-42,150,-125v17,-83,-17,-125,-100,-125v-83,0,-133,42,-150,125v-17,83,17,125,100,125xm50,0v-23,117,-77,175,-160,175r-15,75v167,0,275,-125,325,-375v17,-83,-17,-125,-100,-125v-83,0,-133,42,-150,125v-17,83,17,125,100,125","w":450},"<":{"d":"670,-250r220,-100r-590,-550r810,-550r-180,-100r-930,650","w":1030},"=":{"d":"1140,-600r40,-200r-1050,0r-40,200r1050,0xm1220,-1000r40,-200r-1050,0r-40,200r1050,0","w":1250},">":{"d":"330,-1550r-220,100r590,550r-810,550r180,100r930,-650","w":1005},"?":{"d":"927,-1300r30,-150v23,-113,-49,-175,-215,-175v-233,0,-375,125,-425,375r-250,0r20,-100v63,-317,295,-475,695,-475v333,0,468,162,405,475r-30,150v-33,167,-196,307,-491,408v-63,21,-110,98,-139,242r-250,0r20,-100v40,-183,127,-288,257,-327v221,-67,344,-180,373,-323xm292,0v83,0,133,-42,150,-125v17,-83,-17,-125,-100,-125v-83,0,-133,42,-150,125v-17,83,17,125,100,125","w":1160},"@":{"d":"542,-375v-200,0,-272,-107,-235,-325v40,-233,185,-350,470,-350v100,0,158,-40,174,-120v17,-87,-24,-130,-124,-130v-100,0,-162,58,-185,175r-250,0v34,-247,186,-375,475,-375v267,0,378,108,335,325r-110,550v-10,50,2,75,35,75v33,0,83,-167,150,-500r40,-200v50,-250,-92,-375,-425,-375v-333,0,-552,258,-655,775r-40,200v-60,300,77,450,410,450r450,0r-40,200r-450,0v-500,0,-710,-200,-630,-600r60,-300v123,-617,435,-925,935,-925v500,0,715,175,645,525r-60,300v-82,411,-222,613,-421,608v-199,-5,-287,-66,-264,-183v-27,133,-123,200,-290,200xm737,-850v-100,0,-158,42,-175,125v-20,100,20,150,120,150v100,0,166,-79,197,-236r26,-129v-12,60,-68,90,-168,90","w":1700},"A":{"d":"-180,0r280,0r249,-500r542,0r49,500r280,0r-209,-1800r-262,0xm450,-700r354,-720r66,720r-420,0","w":1470,"k":{"W":500}},"B":{"d":"-180,0r625,0v283,0,465,-200,545,-600v47,-233,-30,-350,-230,-350v200,0,327,-133,380,-400v60,-300,-52,-450,-335,-450r-625,0xm280,-1050r110,-550r275,0v183,0,262,67,235,200v-47,233,-162,350,-345,350r-275,0xm750,-650v-60,300,-182,450,-365,450r-275,0r130,-650r275,0v183,0,262,67,235,200","w":1175},"C":{"d":"1090,-550r-250,0v-50,250,-175,375,-375,375v-200,0,-278,-108,-235,-325r50,-250v117,-583,275,-875,475,-875v200,0,278,108,235,325r-10,50r250,0v77,-383,-68,-575,-435,-575v-367,0,-615,325,-745,975r-50,250v-83,417,58,625,425,625v367,0,588,-192,665,-575"},"D":{"d":"0,0r550,0v367,0,613,-317,740,-950r50,-250v80,-400,-63,-600,-430,-600r-550,0xm290,-200r280,-1400r300,0v200,0,280,100,240,300r-50,250v-113,567,-270,850,-470,850r-300,0","w":1250},"E":{"d":"1090,-1600r40,-200r-950,0r-360,1800r950,0r40,-200r-700,0r125,-625r575,0r40,-200r-575,0r115,-575r700,0","w":1100},"F":{"d":"1090,-1600r40,-200r-950,0r-360,1800r250,0r165,-825r575,0r40,-200r-575,0r115,-575r700,0","w":1100},"G":{"d":"1120,-1000r-642,0r-40,200r392,0r-10,50v-77,383,-215,575,-415,575v-200,0,-278,-108,-235,-325r50,-250v117,-583,275,-875,475,-875v200,0,278,108,235,325r-10,50r250,0r10,-50v70,-350,-78,-525,-445,-525v-367,0,-615,325,-745,975r-50,250v-83,417,58,625,425,625v200,0,333,-67,400,-200r40,175r115,0","w":1305},"H":{"d":"180,-1800r-360,1800r250,0r160,-800r550,0r-160,800r250,0r360,-1800r-250,0r-160,800r-550,0r160,-800r-250,0","w":1290},"I":{"d":"0,0r40,-200r100,0r280,-1400r-100,0r40,-200r450,0r-40,200r-100,0r-280,1400r100,0r-40,200r-450,0","w":610},"J":{"d":"1132,-1800r-250,0r-270,1350v-37,183,-130,275,-280,275v-150,0,-203,-108,-160,-325r10,-50r-250,0r-20,100v-63,317,63,475,380,475v317,0,503,-142,560,-425","w":1150},"K":{"d":"70,0r126,-631r223,-237r261,868r295,0r-352,-1077r663,-723r-289,0r-718,754r151,-754r-250,0r-360,1800r250,0","w":1300},"L":{"d":"820,0r40,-200r-750,0r320,-1600r-250,0r-360,1800r1000,0","k":{"T":500}},"M":{"d":"1680,-1800r-350,0r-685,1425r-115,-1425r-350,0r-360,1800r250,0r250,-1250r100,1250r300,0r600,-1250r-250,1250r250,0","w":1700},"N":{"d":"180,-1800r-360,1800r250,0r260,-1300r290,1300r300,0r360,-1800r-250,0r-260,1300r-290,-1300r-300,0","w":1350},"O":{"d":"940,-1050v-117,583,-275,875,-475,875v-200,0,-278,-108,-235,-325r50,-250v117,-583,275,-875,475,-875v200,0,278,108,235,325xm1220,-1200v83,-417,-58,-625,-425,-625v-367,0,-615,325,-745,975r-50,250v-83,417,58,625,425,625v367,0,615,-325,745,-975","w":1175},"P":{"d":"-1,0r251,0r140,-700r300,0v367,0,577,-133,630,-400r40,-200v67,-333,-83,-500,-450,-500r-552,0xm430,-900r140,-700r300,0v200,0,287,67,260,200r-40,200v-40,200,-160,300,-360,300r-300,0","w":1250},"Q":{"d":"868,-950v-87,440,-158,663,-215,669r-189,-240r-206,59r226,281v-240,33,-355,-75,-306,-319r50,-250v117,-583,275,-875,475,-875v200,0,272,142,215,425xm1188,-1300v70,-350,-78,-525,-445,-525v-367,0,-615,325,-745,975r-50,250v-83,417,58,625,425,625v80,0,160,-14,239,-43r100,123r211,-55r-117,-144v107,-89,218,-407,332,-956","w":1225},"R":{"d":"-180,0r250,0r160,-800r350,0v167,0,233,83,200,250r-90,450v-13,67,13,100,80,100r250,0v-67,0,-93,-33,-80,-100r80,-400v53,-267,-3,-400,-170,-400v167,0,280,-150,340,-450v60,-300,-60,-450,-360,-450r-650,0xm270,-1000r120,-600r350,0v167,0,237,67,210,200v-53,267,-163,400,-330,400r-350,0","w":1325},"S":{"d":"340,-1350v37,-183,155,-275,355,-275v200,0,278,108,235,325r-10,50r250,0v77,-383,-68,-575,-435,-575v-367,0,-585,175,-655,525v-47,233,104,398,458,462v196,36,271,154,222,388v-38,183,-155,275,-355,275v-200,0,-278,-108,-235,-325r10,-50r-250,0v-77,383,68,575,435,575v367,0,578,-142,635,-425v80,-400,-61,-610,-415,-675v-193,-35,-272,-142,-245,-275","w":1325},"T":{"d":"330,0r320,-1600r400,0r40,-200r-1050,0r-40,200r400,0r-320,1600r250,0","w":1075},"U":{"d":"1312,-1800r-250,0r-190,950v-90,450,-238,675,-445,675v-173,0,-238,-108,-195,-325r260,-1300r-250,0r-240,1200v-83,417,45,625,385,625v373,0,618,-292,735,-875"},"V":{"d":"1580,-1800r-300,0r-684,1420r-116,-1420r-300,0r200,1800r280,0","w":1370},"W":{"d":"550,0r404,-1020r-4,1020r300,0r790,-1800r-280,0r-584,1420r84,-1420r-300,0r-484,1420r-16,-1420r-280,0r70,1800r300,0","w":1830},"X":{"d":"-180,0r290,0r548,-740r252,740r290,0r-334,-905r694,-895r-290,0r-546,730r-254,-730r-290,0r336,895","w":1499},"Y":{"d":"1330,-1800r-300,0r-455,900r-95,-900r-300,0r220,1150r-130,650r250,0r130,-650","w":1120},"Z":{"d":"1140,-1600r40,-200r-1000,0r-40,200r725,0r-1005,1400r-40,200r1000,0r40,-200r-725,0","w":1250},"[":{"d":"680,-1800r40,-200r-500,0r-440,2200r500,0r40,-200r-250,0r360,-1800r250,0","w":700},"\\":{"d":"188,-1846r633,1910r266,0r-648,-1910r-251,0","w":1225},"]":{"d":"-180,0r-40,200r500,0r440,-2200r-500,0r-40,200r250,0r-360,1800r-250,0","w":700},"^":{"d":"430,-1800r215,550r-100,0r-200,-250r-300,250r-98,0r433,-550r50,0","w":750},"_":{"d":"1390,250r20,-100r-1400,0r-20,100r1400,0","w":1400},"`":{"d":"265,-1675v17,-83,-17,-125,-100,-125v-83,0,-133,42,-150,125v-37,183,28,275,195,275r15,-75v-83,0,-120,-25,-110,-75v83,0,133,-42,150,-125","w":350},"a":{"d":"675,-275v-37,183,-22,275,45,275r250,0v-67,0,-88,-58,-65,-175r135,-675v63,-317,-72,-475,-405,-475v-333,0,-525,125,-575,375r-20,100r250,0v37,-183,138,-275,305,-275v167,0,238,58,215,175v-23,113,-117,170,-284,170v-333,0,-521,103,-562,310v-66,330,48,495,341,495v207,0,330,-100,370,-300xm754,-670r-34,170v-43,217,-148,325,-315,325v-167,0,-234,-82,-201,-245v21,-107,115,-160,282,-160v167,0,256,-30,268,-90"},"b":{"d":"-183,0r370,-1850r250,0r-185,925v53,-267,205,-400,455,-400v250,0,333,208,250,625r-20,100v-83,417,-250,625,-500,625v-250,0,-348,-133,-295,-400r-75,375r-250,0xm217,-750r-30,150v-57,283,-2,425,165,425v167,0,282,-158,345,-475r30,-150v43,-217,-18,-325,-185,-325v-167,0,-275,125,-325,375"},"c":{"d":"970,-500r-250,0v-43,217,-148,325,-315,325v-167,0,-222,-142,-165,-425r30,-150v50,-250,158,-375,325,-375v167,0,235,75,205,225r-20,100r250,0v70,-350,-62,-525,-395,-525v-333,0,-532,158,-595,475r-30,150v-97,483,22,725,355,725v333,0,528,-142,585,-425"},"d":{"d":"817,0r370,-1850r-250,0r-175,875v47,-233,-55,-350,-305,-350v-250,0,-407,158,-470,475r-30,150v-97,483,-20,725,230,725v250,0,408,-167,475,-500r-95,475r250,0xm727,-800r-30,150v-63,317,-178,475,-345,475v-167,0,-222,-142,-165,-425r30,-150v50,-250,158,-375,325,-375v167,0,228,108,185,325"},"e":{"d":"40,-850r-30,150v-97,483,22,725,355,725v333,0,525,-125,575,-375r20,-100r-250,0v-37,183,-138,275,-305,275v-167,0,-225,-125,-175,-375r750,0r30,-150v83,-417,-42,-625,-375,-625v-333,0,-532,158,-595,475xm270,-750v50,-250,158,-375,325,-375v167,0,228,108,185,325r-10,50r-500,0"},"f":{"d":"205,0r220,-1100r250,0r40,-200r-250,0r40,-200v20,-100,113,-150,280,-150r40,-200r-236,0v-176,0,-284,100,-324,300r-50,250r-140,0r-40,200r140,0r-220,1100r250,0","w":640},"g":{"d":"1175,-1300r-270,1350v-57,283,-252,425,-585,425v-333,0,-473,-133,-420,-400r250,0r-15,75v-17,83,58,125,225,125v167,0,272,-108,315,-325r65,-325v-53,267,-205,400,-455,400v-250,0,-327,-242,-230,-725r30,-150v63,-317,220,-475,470,-475v250,0,352,117,305,350r65,-325r250,0xm775,-550r50,-250v43,-217,-18,-325,-185,-325v-167,0,-275,125,-325,375r-30,150v-57,283,-2,425,165,425v167,0,275,-125,325,-375","w":1150},"h":{"d":"-185,0r250,0r150,-750v50,-250,158,-375,325,-375v167,0,228,108,185,325r-160,800r250,0r140,-700v83,-417,0,-625,-250,-625v-250,0,-402,133,-455,400r185,-925r-250,0"},"i":{"d":"77,-1300r-260,1300r250,0r260,-1300r-250,0xm307,-1825v-97,0,-155,45,-173,137v-18,92,21,138,118,138v97,0,154,-46,172,-138v18,-92,-20,-137,-117,-137","w":450},"j":{"d":"125,-1300r-280,1400v-23,117,-95,175,-214,175r-41,200r179,0v167,0,268,-87,303,-260r303,-1515r-250,0xm355,-1825v-97,0,-155,45,-173,137v-18,92,21,138,118,138v97,0,154,-46,172,-138v18,-92,-20,-137,-117,-137","w":450},"k":{"d":"65,0r44,-219r241,-265r196,484r287,0r-278,-713r521,-587r-289,0r-593,654r241,-1204r-250,0r-370,1850r250,0","w":1150},"l":{"d":"65,0r370,-1850r-250,0r-370,1850r250,0","w":450},"m":{"d":"-133,0r250,0r150,-750v50,-250,138,-375,265,-375v127,0,168,108,125,325r-160,800r250,0r140,-700v57,-283,148,-425,275,-425v127,0,168,108,125,325r-160,800r250,0r140,-700v83,-417,28,-625,-167,-625v-195,0,-337,103,-425,310v5,-207,-85,-310,-268,-310v-183,0,-302,133,-355,400r75,-375r-250,0","w":1710},"n":{"d":"-133,0r250,0r150,-750v50,-250,158,-375,325,-375v167,0,222,142,165,425r-140,700r250,0r160,-800v70,-350,-20,-525,-270,-525v-250,0,-402,133,-455,400r75,-375r-250,0"},"o":{"d":"730,-550v-50,250,-158,375,-325,375v-167,0,-228,-108,-185,-325r50,-250v50,-250,158,-375,325,-375v167,0,228,108,185,325xm1010,-700v83,-417,-42,-625,-375,-625v-333,0,-532,158,-595,475r-50,250v-83,417,42,625,375,625v333,0,532,-158,595,-475"},"p":{"d":"175,-1300r-355,1775r250,0r160,-800v-47,233,55,350,305,350v250,0,413,-192,490,-575r30,-150v83,-417,0,-625,-250,-625v-250,0,-402,133,-455,400r75,-375r-250,0xm285,-600r30,-150v50,-250,158,-375,325,-375v167,0,228,108,185,325r-30,150v-63,317,-178,475,-345,475v-167,0,-222,-142,-165,-425","w":1150},"q":{"d":"1175,-1300r-355,1775r-250,0r190,-950v-67,333,-222,500,-465,500v-243,0,-323,-242,-240,-725r30,-150v80,-317,241,-475,483,-475v242,0,339,117,292,350r65,-325r250,0xm795,-650r30,-150v43,-217,-18,-325,-185,-325v-167,0,-275,125,-325,375r-30,150v-57,283,-2,425,165,425v167,0,282,-158,345,-475","w":1175},"r":{"d":"-133,0r250,0r150,-750v50,-250,135,-375,257,-375v122,0,168,75,138,225r-10,50r250,0v63,-317,-7,-475,-212,-475v-205,0,-335,133,-388,400r75,-375r-250,0","w":1065},"s":{"d":"700,-400v-30,150,-128,225,-295,225v-167,0,-238,-58,-215,-175r20,-100r-250,0v-63,317,72,475,405,475v333,0,525,-125,575,-375v54,-269,-85,-407,-415,-424v-164,-9,-236,-71,-215,-176v23,-117,118,-175,285,-175v167,0,238,58,215,175r-20,100r250,0v63,-317,-72,-475,-405,-475v-333,0,-522,108,-565,325v-57,285,80,435,410,450v165,8,239,58,220,150"},"t":{"d":"560,-1700r-80,400r250,0r-40,200r-250,0r-140,700v-27,133,43,200,210,200r-40,200r-250,0v-167,0,-230,-100,-190,-300r160,-800r-140,0r40,-200r140,0r80,-400r250,0","w":690},"u":{"d":"1132,-1300r-250,0r-130,650v-63,317,-178,475,-345,475v-167,0,-222,-142,-165,-425r140,-700r-250,0r-120,600v-97,483,-20,725,230,725v250,0,408,-167,475,-500r-95,475r250,0"},"v":{"d":"1290,-1300r-300,0r-482,1010r-78,-1010r-300,0r170,1300r300,0","w":1230},"w":{"d":"410,0r306,-730r14,730r250,0r550,-1300r-250,0r-348,840r23,-840r-250,0r-323,840r-2,-840r-250,0r30,1300r250,0","w":1420},"x":{"d":"160,0r338,-465r152,465r290,0r-288,-635r548,-665r-290,0r-348,515r-142,-515r-290,0r282,665r-542,635r290,0","w":1140},"y":{"d":"1357,-1300r-300,0r-482,1008r-98,-1008r-300,0r232,1300r-77,151v-39,83,-88,124,-146,124r-154,0r-40,200r186,0v135,0,242,-89,337,-259"},"z":{"d":"990,-1100r40,-200r-900,0r-40,200r610,0r-790,900r-40,200r900,0r40,-200r-610,0","w":1100},"{":{"d":"820,-2000v-297,-11,-471,101,-520,350r-100,500v-20,100,-80,150,-180,150r-40,200v100,0,140,50,120,150r-100,500v-55,251,91,363,380,350r40,-200v-108,7,-197,-15,-180,-100r120,-600v27,-133,-10,-200,-110,-200v100,0,163,-67,190,-200r120,-600v11,-81,104,-107,220,-100","w":650},"|":{"d":"630,-2200r-530,2650r-152,0r530,-2650r152,0","w":400},"}":{"d":"-220,200v297,11,471,-101,520,-350r100,-500v20,-100,80,-150,180,-150r40,-200v-100,0,-140,-50,-120,-150r100,-500v55,-251,-91,-363,-380,-350r-40,200v108,-7,197,15,180,100r-120,600v-27,133,10,200,110,200v-100,0,-163,67,-190,200r-120,600v-11,81,-104,107,-220,100","w":650},"~":{"d":"350,-900v-107,0,-145,58,-155,150r-225,0v31,-235,180,-350,470,-350v133,0,206,33,218,100v12,67,59,100,142,100v107,0,145,-58,155,-150r225,0v-31,235,-180,350,-470,350v-133,0,-206,-33,-218,-100v-12,-67,-59,-100,-142,-100","w":1140},"\u00c7":{"d":"375,-50r-60,300r100,0v6,-35,13,-78,53,-75v57,4,15,95,10,135v-6,44,-55,65,-138,65v-104,-1,-127,-28,-106,-96r-100,1r-12,58v-15,75,53,112,203,112v150,0,232,-37,247,-112r26,-127v15,-74,-8,-111,-66,-111v-58,0,-90,16,-96,47r39,-197r-100,0xm1090,-550r-250,0v-50,250,-175,375,-375,375v-200,0,-278,-108,-235,-325r50,-250v117,-583,275,-875,475,-875v200,0,278,108,235,325r-10,50r250,0v77,-383,-68,-575,-435,-575v-367,0,-615,325,-745,975r-50,250v-83,417,58,625,425,625v367,0,588,-192,665,-575"},"\u00d6":{"d":"500,-2075v17,-83,67,-125,150,-125v83,0,117,42,100,125v-17,83,-67,125,-150,125v-83,0,-117,-42,-100,-125xm1000,-2075v17,-83,67,-125,150,-125v83,0,117,42,100,125v-17,83,-67,125,-150,125v-83,0,-117,-42,-100,-125xm940,-1050v-117,583,-275,875,-475,875v-200,0,-278,-108,-235,-325r50,-250v117,-583,275,-875,475,-875v200,0,278,108,235,325xm1220,-1200v83,-417,-58,-625,-425,-625v-367,0,-615,325,-745,975r-50,250v-83,417,58,625,425,625v367,0,615,-325,745,-975","w":1175},"\u00dc":{"d":"450,-2075v17,-83,67,-125,150,-125v83,0,117,42,100,125v-17,83,-67,125,-150,125v-83,0,-117,-42,-100,-125xm950,-2075v17,-83,67,-125,150,-125v83,0,117,42,100,125v-17,83,-67,125,-150,125v-83,0,-117,-42,-100,-125xm1312,-1800r-250,0r-190,950v-90,450,-238,675,-445,675v-173,0,-238,-108,-195,-325r260,-1300r-250,0r-240,1200v-83,417,45,625,385,625v373,0,618,-292,735,-875"},"\u00e7":{"d":"325,-50r-60,300r100,0v6,-35,13,-78,53,-75v57,4,15,95,10,135v-6,44,-55,65,-138,65v-104,-1,-127,-28,-106,-96r-100,1r-12,58v-15,75,53,112,203,112v150,0,232,-37,247,-112r26,-127v15,-74,-8,-111,-66,-111v-58,0,-90,16,-96,47r39,-197r-100,0xm970,-500r-250,0v-43,217,-148,325,-315,325v-167,0,-222,-142,-165,-425r30,-150v50,-250,158,-375,325,-375v167,0,235,75,205,225r-20,100r250,0v70,-350,-62,-525,-395,-525v-333,0,-532,158,-595,475r-30,150v-97,483,22,725,355,725v333,0,528,-142,585,-425"},"\u00f6":{"d":"300,-1575v17,-83,67,-125,150,-125v83,0,117,42,100,125v-17,83,-67,125,-150,125v-83,0,-117,-42,-100,-125xm800,-1575v17,-83,67,-125,150,-125v83,0,117,42,100,125v-17,83,-67,125,-150,125v-83,0,-117,-42,-100,-125xm730,-550v-50,250,-158,375,-325,375v-167,0,-228,-108,-185,-325r50,-250v50,-250,158,-375,325,-375v167,0,228,108,185,325xm1010,-700v83,-417,-42,-625,-375,-625v-333,0,-532,158,-595,475r-50,250v-83,417,42,625,375,625v333,0,532,-158,595,-475"},"\u00fc":{"d":"300,-1575v17,-83,67,-125,150,-125v83,0,117,42,100,125v-17,83,-67,125,-150,125v-83,0,-117,-42,-100,-125xm800,-1575v17,-83,67,-125,150,-125v83,0,117,42,100,125v-17,83,-67,125,-150,125v-83,0,-117,-42,-100,-125xm1132,-1300r-250,0r-130,650v-63,317,-178,475,-345,475v-167,0,-222,-142,-165,-425r140,-700r-250,0r-120,600v-97,483,-20,725,230,725v250,0,408,-167,475,-500r-95,475r250,0"},"\u0131":{"d":"130,-1300r-260,1300r250,0r260,-1300r-250,0","w":450},"\u00a0":{"w":600}}});
/*!
 * The following copyright notice may not be removed under any circumstances.
 * 
 * Copyright:
 * Enigmatic ©2003 by Starving-4 Entertainment, dart@puzzlers.org This font is
 * licensed under the terms of the Design Science Licence:
 * http://dsl.org/copyleft/dsl.txt
 * 
 * Description:
 * I created this font in FCP's thirty day trial. Since then it's undergone a
 * number of renovations, and it's looking pretty good.
 * 
 * Manufacturer:
 * Starving-4 Entertainment
 * 
 * Designer:
 * Darren Rigby
 * 
 * Vendor URL:
 * http://dartcanada.tripod.com/Objets
 */
Cufon.registerFont({"w":1400,"face":{"font-family":"Enigmatic Regular","font-weight":400,"font-stretch":"normal","units-per-em":"2400","panose-1":"2 0 0 0 0 0 0 0 0 0","ascent":"1920","descent":"-480","x-height":"25","bbox":"-180 -2200 2060 475","underline-thickness":"48","underline-position":"-140","unicode-range":"U+0020-U+0131"},"glyphs":{" ":{"w":600},"!":{"d":"225,-375r25,-1425r-250,0r35,1425r190,0xm125,0v83,0,125,-42,125,-125v0,-83,-42,-125,-125,-125v-83,0,-125,42,-125,125v0,83,42,125,125,125","w":450},"\"":{"d":"500,-1500r50,0v53,-100,100,-182,100,-250v0,-100,-42,-150,-125,-150v-83,0,-125,50,-125,150v0,68,47,150,100,250xm100,-1500r50,0v53,-100,100,-182,100,-250v0,-100,-42,-150,-125,-150v-83,0,-125,50,-125,150v0,68,47,150,100,250","w":850},"#":{"d":"100,0r250,0r90,-400r350,0r-90,400r250,0r90,-400r210,0r0,-150r-180,0r160,-700r220,0r0,-150r-190,0r90,-400r-250,0r-90,400r-350,0r90,-400r-250,0r-90,400r-210,0r0,150r175,0r-150,700r-225,0r0,150r190,0xm475,-550r150,-700r350,0r-155,700r-345,0","w":1650},"$":{"d":"735,-1060r0,-465v183,0,275,58,275,175r0,100r250,0r0,-150v0,-217,-175,-325,-525,-325r0,-125r-150,0r0,125v-350,0,-525,108,-525,325r0,225v0,167,160,275,480,325r45,7r0,493v-183,0,-275,-58,-275,-175r0,-100r-250,0r0,150v0,217,175,325,525,325r0,175r150,0r0,-175v350,0,525,-108,525,-325r0,-200v0,-200,-160,-325,-480,-375xm310,-1275r0,-75v0,-117,92,-175,275,-175r0,445r-45,-7v-153,-25,-230,-88,-230,-188xm735,-820r30,7v157,25,233,88,230,188r0,100v0,117,-87,175,-260,175r0,-470"},"%":{"d":"1600,-650v0,-150,-125,-225,-375,-225v-250,0,-375,75,-375,225r0,450v0,150,125,225,375,225v250,0,375,-75,375,-225r0,-450xm1425,-250v0,83,-67,125,-200,125v-133,0,-200,-42,-200,-125r0,-350v0,-83,67,-125,200,-125v133,0,200,42,200,125r0,350xm1325,-1800r-1325,1800r275,0r1325,-1800r-275,0xm750,-1600v0,-150,-125,-225,-375,-225v-250,0,-375,75,-375,225r0,450v0,150,125,225,375,225v250,0,375,-75,375,-225r0,-450xm575,-1200v0,83,-67,125,-200,125v-133,0,-200,-42,-200,-125r0,-350v0,-83,67,-125,200,-125v133,0,200,42,200,125r0,350","w":1800},"&":{"d":"685,-1625v-223,0,-335,57,-335,170v0,83,8,129,74,204r791,896v55,-89,30,-257,35,-395r250,0r0,350v-1,93,-33,173,-94,240r127,160r-309,0r-28,-32v-114,48,-279,57,-496,57v-467,0,-700,-158,-700,-475r0,-450v0,-150,75,-225,225,-225v-108,-109,-125,-199,-125,-375v0,-217,191,-325,573,-325v418,0,627,108,627,325r0,250r-250,0r0,-200v0,-117,-122,-175,-365,-175xm250,-500v0,217,150,325,450,325v137,0,247,-15,330,-45r-630,-705v-100,-50,-150,-8,-150,125r0,300","w":1700},"'":{"d":"125,-1550v0,50,-42,75,-125,75r0,75v167,0,250,-92,250,-275v0,-83,-42,-125,-125,-125v-83,0,-125,42,-125,125v0,83,42,125,125,125","w":450},"(":{"d":"625,-2000v-417,67,-625,433,-625,1100v0,667,208,1033,625,1100r0,-200v-250,-100,-375,-400,-375,-900v0,-500,125,-800,375,-900r0,-200","w":825},")":{"d":"0,200v417,-67,625,-433,625,-1100v0,-667,-208,-1033,-625,-1100r0,200v250,100,375,400,375,900v0,500,-125,800,-375,900r0,200","w":825},"*":{"d":"337,-1431r-187,-130r34,-104r228,5r66,-218r109,0r66,219r228,-5r34,104r-188,130r75,216r-88,64r-182,-139r-181,138r-89,-64","w":1064},"+":{"d":"400,-400r0,-400r-400,0r0,-200r400,0r0,-400r200,0r0,400r400,0r0,200r-400,0r0,400r-200,0","w":1200},",":{"d":"125,0v0,117,-42,175,-125,175r0,75v167,0,250,-125,250,-375v0,-83,-42,-125,-125,-125v-83,0,-125,42,-125,125v0,83,42,125,125,125","w":450},"-":{"d":"1000,-800r0,-200r-1000,0r0,200r1000,0","w":1200},"\u2010":{"d":"1000,-800r0,-200r-1000,0r0,200r1000,0","w":1200},".":{"d":"272,4v82,0,123,-42,123,-127v0,-85,-41,-128,-123,-128v-82,0,-123,43,-123,128v0,85,41,127,123,127","w":546},"\/":{"d":"1200,-1850r-1050,1900r-250,0r1050,-1900r250,0","w":1099},"0":{"d":"890,-350v0,117,-97,175,-290,175v-193,0,-290,-58,-290,-175r0,-1100v0,-117,97,-175,290,-175v193,0,290,58,290,175r0,1100xm1140,-1500v0,-217,-180,-325,-540,-325v-360,0,-540,108,-540,325r0,1200v0,217,180,325,540,325v360,0,540,-108,540,-325r0,-1200"},"1":{"d":"330,-1650r0,200r290,0r0,1450r250,0r0,-1800r-250,0v0,100,-97,150,-290,150"},"2":{"d":"950,-1250r0,-200v0,-117,-117,-175,-352,-175v-232,0,-348,58,-348,175r0,200r-250,0r0,-250v0,-217,200,-325,600,-325v400,0,600,108,600,325r0,300v0,167,-160,275,-480,325r-240,37v-153,25,-230,88,-230,188r0,450r950,0r0,200r-1200,0r0,-700v0,-167,160,-275,480,-325r240,-37v153,-25,230,-88,230,-188"},"3":{"d":"600,-1625v233,0,350,58,350,175r0,250v0,100,-67,150,-200,150r-350,0r0,200r350,0v133,0,200,50,200,150r0,350v0,117,-117,175,-350,175v-233,0,-350,-58,-350,-175r0,-200r-250,0r0,250v0,217,200,325,600,325v400,0,600,-108,600,-325r0,-350v0,-200,-83,-300,-250,-300v167,0,250,-100,250,-300r0,-250v0,-217,-200,-325,-600,-325v-400,0,-600,108,-600,325r0,250r250,0r0,-200v0,-117,117,-175,350,-175"},"4":{"d":"1200,-550r-110,0r0,-1250r-250,0r-840,1250r0,200r840,0r0,350r250,0r0,-350r110,0r0,-200xm240,-550r600,-885r0,885r-600,0"},"5":{"d":"0,-1800r0,950r250,0r0,-100v0,-117,117,-175,350,-175v233,0,350,58,350,175r0,600v0,117,-117,175,-350,175v-233,0,-350,-58,-350,-175r0,-200r-250,0r0,250v0,217,200,325,600,325v400,0,600,-108,600,-325r0,-700v0,-217,-158,-325,-475,-325v-317,0,-475,67,-475,200r0,-475r950,0r0,-200r-1200,0"},"6":{"d":"0,-300r0,-1200v0,-217,200,-325,600,-325v400,0,600,108,600,325r0,250r-250,0r0,-200v0,-117,-117,-175,-350,-175v-233,0,-350,58,-350,175r0,525v0,-133,158,-200,475,-200v317,0,475,108,475,325r0,500v0,217,-200,325,-600,325v-400,0,-600,-108,-600,-325xm250,-750r0,400v0,117,117,175,350,175v233,0,350,-58,350,-175r0,-400v0,-117,-117,-175,-350,-175v-233,0,-350,58,-350,175"},"7":{"d":"50,-1800r0,200r912,0v-267,195,-446,416,-536,666v-90,250,-169,561,-238,934r252,0v27,-194,88,-450,182,-768v94,-318,270,-581,528,-792r0,-240r-1100,0"},"8":{"d":"250,-950v-167,0,-250,100,-250,300r0,350v0,217,200,325,600,325v400,0,600,-108,600,-325r0,-350v0,-200,-83,-300,-250,-300v167,0,250,-100,250,-300r0,-250v0,-217,-200,-325,-600,-325v-400,0,-600,108,-600,325r0,250v0,200,83,300,250,300xm250,-1200r0,-250v0,-117,117,-175,350,-175v233,0,350,58,350,175r0,250v0,100,-117,150,-350,150v-233,0,-350,-50,-350,-150xm950,-700r0,350v0,117,-117,175,-350,175v-233,0,-350,-58,-350,-175r0,-350v0,-100,117,-150,350,-150v233,0,350,50,350,150"},"9":{"d":"1200,-1500r0,1200v0,217,-200,325,-600,325v-400,0,-600,-108,-600,-325r0,-250r250,0r0,200v0,117,117,175,350,175v233,0,350,-58,350,-175r0,-525v0,133,-158,200,-475,200v-317,0,-475,-108,-475,-325r0,-500v0,-217,200,-325,600,-325v400,0,600,108,600,325xm950,-1050r0,-400v0,-117,-117,-175,-350,-175v-233,0,-350,58,-350,175r0,400v0,117,117,175,350,175v233,0,350,-58,350,-175"},":":{"d":"125,-750v83,0,125,-42,125,-125v0,-83,-42,-125,-125,-125v-83,0,-125,42,-125,125v0,83,42,125,125,125xm125,0v83,0,125,-42,125,-125v0,-83,-42,-125,-125,-125v-83,0,-125,42,-125,125v0,83,42,125,125,125","w":450},";":{"d":"125,-750v83,0,125,-42,125,-125v0,-83,-42,-125,-125,-125v-83,0,-125,42,-125,125v0,83,42,125,125,125xm125,0v0,117,-42,175,-125,175r0,75v167,0,250,-125,250,-375v0,-83,-42,-125,-125,-125v-83,0,-125,42,-125,125v0,83,42,125,125,125","w":450},"<":{"d":"800,-250r200,-100r-700,-550r700,-550r-200,-100r-800,650","w":1200},"=":{"d":"1200,-600r0,-200r-1050,0r0,200r1050,0xm1200,-1000r0,-200r-1050,0r0,200r1050,0","w":1350},">":{"d":"200,-1550r-200,100r700,550r-700,550r200,100r800,-650","w":1200},"?":{"d":"950,-1175r0,-275v0,-117,-120,-175,-359,-175v-227,0,-341,58,-341,175r0,200r-250,0r0,-250v0,-217,198,-325,593,-325v405,0,607,108,607,325r0,350v0,163,-85,244,-243,292r-216,66v-61,17,-91,48,-91,92r0,150r-250,0r0,-187v3,-125,67,-207,192,-240r223,-58v90,-37,135,-83,135,-140xm525,0v83,0,125,-42,125,-125v0,-83,-42,-125,-125,-125v-83,0,-125,42,-125,125v0,83,42,125,125,125"},"@":{"d":"740,-375v-276,0,-390,-116,-390,-365v0,-207,150,-310,450,-310v133,0,200,-40,200,-120v0,-87,-67,-130,-200,-130v-133,0,-200,58,-200,175r-250,0v-15,-264,129,-375,450,-375v300,0,450,108,450,325r0,550v0,50,17,75,50,75v33,0,50,-25,50,-75r0,-625v0,-250,-183,-375,-550,-375v-367,0,-550,125,-550,375r0,700v0,233,183,350,550,350r550,0r0,200r-550,0v-533,0,-800,-167,-800,-500r0,-800v0,-350,267,-525,800,-525v533,0,800,175,800,525r0,700v0,144,-100,225,-300,225v-201,0,-300,-83,-300,-200v0,133,-87,200,-260,200xm800,-850v-133,0,-200,42,-200,125v0,100,67,150,200,150v133,0,200,-79,200,-236r0,-129v0,60,-67,90,-200,90","w":1800},"A":{"d":"610,-1800r280,0r610,1800r-300,0r-160,-500r-580,0r-160,500r-300,0xm975,-700r-225,-720r-225,720r450,0","w":1620,"k":{"W":500}},"B":{"d":"0,0r850,0v233,0,350,-100,350,-300r0,-350v0,-200,-100,-300,-300,-300v200,0,300,-83,300,-250r0,-300v0,-200,-117,-300,-350,-300r-850,0r0,1800xm250,-1050r0,-550r500,0v133,0,200,50,200,150r0,250v0,100,-67,150,-200,150r-500,0xm950,-700r0,350v0,100,-67,150,-200,150r-500,0r0,-650r500,0v133,0,200,50,200,150"},"C":{"d":"1200,-550r-250,0r0,200v0,117,-117,175,-350,175v-233,0,-350,-58,-350,-175r0,-1100v0,-117,117,-175,350,-175v233,0,350,58,350,175r0,200r250,0r0,-250v0,-217,-200,-325,-600,-325v-400,0,-600,108,-600,325r0,1200v0,217,200,325,600,325v400,0,600,-108,600,-325r0,-250"},"D":{"d":"0,0r850,0v233,0,350,-100,350,-300r0,-1200v0,-200,-117,-300,-350,-300r-850,0r0,1800xm250,-200r0,-1400r500,0v133,0,200,50,200,150r0,1100v0,100,-67,150,-200,150r-500,0"},"E":{"d":"250,-1600r0,575r625,0r0,200r-625,0r0,625r750,0r0,200r-1000,0r0,-1800r1000,0r0,200r-750,0","w":1200},"F":{"d":"1000,-1600r0,-200r-1000,0r0,1800r250,0r0,-825r625,0r0,-200r-625,0r0,-575r750,0","w":1200},"G":{"d":"1200,-1000r-742,0r0,200r492,0r0,450v0,117,-117,175,-350,175v-233,0,-350,-58,-350,-175r0,-1100v0,-117,117,-175,350,-175v233,0,350,58,350,175r0,200r250,0r0,-250v0,-217,-200,-325,-600,-325v-400,0,-600,108,-600,325r0,1200v0,217,200,325,600,325v233,0,370,-67,409,-200r78,175r113,0r0,-1000"},"H":{"d":"0,-1800r0,1800r250,0r0,-800r600,0r0,800r250,0r0,-1800r-250,0r0,800r-600,0r0,-800r-250,0","w":1300},"I":{"d":"0,0r0,-200r100,0r0,-1400r-100,0r0,-200r450,0r0,200r-100,0r0,1400r100,0r0,200r-450,0","w":650},"J":{"d":"1050,-1800r-250,0r0,1450v0,117,-92,175,-275,175v-183,0,-275,-58,-275,-175r0,-200r-250,0r0,250v0,217,175,325,525,325v350,0,525,-108,525,-325r0,-1500","w":1250},"K":{"d":"250,0r0,-631r175,-237r435,868r295,0r-567,-1077r518,-723r-289,0r-567,754r0,-754r-250,0r0,1800r250,0","w":1300},"L":{"d":"1000,0r0,-200r-750,0r0,-1600r-250,0r0,1800r1000,0","w":1200,"k":{"T":500}},"M":{"d":"1650,-1800r-350,0r-475,1424r-475,-1424r-350,0r0,1800r250,0r0,-1250r425,1250r300,0r425,-1250r0,1250r250,0r0,-1800","w":1850},"N":{"d":"300,-1800r550,1300r0,-1300r250,0r0,1800r-300,0r-550,-1300r0,1300r-250,0r0,-1800r300,0","w":1300},"O":{"d":"950,-1450v0,-117,-117,-175,-350,-175v-233,0,-350,58,-350,175r0,1100v0,117,117,175,350,175v233,0,350,-58,350,-175r0,-1100xm1200,-300v0,217,-200,325,-600,325v-400,0,-600,-108,-600,-325r0,-1200v0,-217,200,-325,600,-325v400,0,600,108,600,325r0,1200"},"P":{"d":"-2,-1800r752,0v300,0,450,117,450,350r0,400v0,233,-150,350,-450,350r-500,0r0,700r-251,0xm650,-900v200,0,300,-67,300,-200r0,-300v0,-133,-100,-200,-300,-200r-400,0r0,700r400,0"},"Q":{"d":"950,-350v1,40,-14,75,-46,104r-272,-275r-194,59r282,281v-43,5,-83,6,-120,6v-233,0,-350,-58,-350,-175r0,-1100v0,-117,117,-175,350,-175v233,0,350,58,350,175r0,1100xm1200,-1500v0,-217,-200,-325,-600,-325v-400,0,-600,108,-600,325r0,1200v0,217,200,325,600,325v113,0,213,-8,300,-23r105,103r200,-55r-126,-124v83,-59,121,-134,121,-226r0,-1200"},"R":{"d":"0,0r250,0r0,-800r500,0v133,0,200,50,200,150r0,550v0,67,33,100,100,100r250,0v-67,0,-100,-33,-100,-100r0,-500v0,-200,-83,-300,-250,-300v167,0,250,-100,250,-300r0,-300v0,-200,-133,-300,-400,-300r-800,0r0,1800xm250,-1000r0,-600r500,0v133,0,200,50,200,150r0,300v0,100,-67,150,-200,150r-500,0"},"S":{"d":"250,-1300r0,-150v0,-117,117,-175,350,-175v233,0,350,58,350,175r0,200r250,0r0,-250v0,-217,-200,-325,-600,-325v-400,0,-600,108,-600,325r0,300v0,167,160,275,480,325r240,37v157,25,230,88,230,188r0,300v0,117,-117,175,-350,175v-233,0,-350,-58,-350,-175r0,-200r-250,0r0,250v0,217,200,325,600,325v400,0,600,-108,600,-325r0,-400v0,-200,-160,-325,-480,-375r-240,-37v-153,-25,-230,-88,-230,-188"},"T":{"d":"750,0r0,-1600r500,0r0,-200r-1250,0r0,200r500,0r0,1600r250,0","w":1450},"U":{"d":"1200,-300v0,217,-200,325,-600,325v-400,0,-600,-108,-600,-325r0,-1500r250,0r0,1450v0,117,117,175,350,175v233,0,350,-58,350,-175r0,-1450r250,0r0,1500"},"V":{"d":"1500,-1800r-300,0r-450,1420r-450,-1420r-300,0r610,1800r280,0","w":1620},"W":{"d":"830,0r200,-1020r200,1020r300,0r530,-1800r-280,0r-400,1420r-200,-1420r-300,0r-200,1420r-400,-1420r-280,0r530,1800r300,0","w":2180},"X":{"d":"0,0r290,0r450,-735r450,735r290,0r-565,-900r565,-900r-290,0r-450,735r-450,-735r-290,0r565,900","w":1599},"Y":{"d":"1450,-1800r-300,0r-425,900r-425,-900r-300,0r600,1150r0,650r250,0r0,-650","w":1570},"Z":{"d":"1050,-1600r0,-200r-1050,0r0,200r775,0r-775,1400r0,200r1050,0r0,-200r-775,0","w":1250},"[":{"d":"500,-1800r0,-200r-500,0r0,2200r500,0r0,-200r-250,0r0,-1800r250,0","w":700},"\\":{"d":"-3,-1846r1015,1910r266,0r-1030,-1910r-251,0","w":1275},"]":{"d":"0,0r0,200r500,0r0,-2200r-500,0r0,200r250,0r0,1800r-250,0","w":700},"^":{"d":"375,-1800r325,550r-100,0r-250,-250r-250,250r-98,0r323,-550r50,0","w":900},"_":{"d":"1400,250r0,-100r-1400,0r0,100r1400,0"},"`":{"d":"250,-1675v0,-83,-42,-125,-125,-125v-83,0,-125,42,-125,125v0,183,83,275,250,275r0,-75v-83,0,-125,-25,-125,-75v83,0,125,-42,125,-125","w":450},"a":{"d":"440,25v-293,0,-440,-108,-440,-325r0,-170v0,-207,167,-310,500,-310v192,0,250,-32,250,-170v0,-117,-83,-175,-250,-175v-143,0,-215,58,-215,175r0,100r-250,0r0,-150v0,-217,155,-325,465,-325v333,0,500,108,500,325r0,825v0,117,33,175,100,175r-250,0v-67,0,-100,-58,-100,-175v0,133,-103,200,-310,200xm500,-580v-167,0,-250,53,-250,160r0,70v0,117,83,175,250,175v167,0,250,-79,250,-236r0,-259v0,60,-83,90,-250,90","w":1200},"b":{"d":"0,0r0,-1850r250,0r0,725v0,-133,142,-200,425,-200v283,0,425,108,425,325r0,700v0,217,-142,325,-425,325v-283,0,-425,-67,-425,-200r0,175r-250,0xm250,-950r0,600v0,117,100,175,300,175v200,0,300,-58,300,-175r0,-600v0,-117,-100,-175,-300,-175v-200,0,-300,58,-300,175","w":1300},"c":{"d":"1100,-500r-250,0r0,150v0,117,-100,175,-300,175v-200,0,-300,-58,-300,-175r0,-600v0,-117,100,-175,300,-175v200,0,300,58,300,175r0,150r250,0r0,-200v0,-217,-183,-325,-550,-325v-367,0,-550,108,-550,325r0,700v0,217,183,325,550,325v367,0,550,-108,550,-325r0,-200","w":1300},"d":{"d":"1100,0r0,-1850r-250,0r0,725v0,-133,-142,-200,-425,-200v-283,0,-425,108,-425,325r0,700v0,217,142,325,425,325v283,0,425,-67,425,-200r0,175r250,0xm850,-950r0,600v0,117,-100,175,-300,175v-200,0,-300,-58,-300,-175r0,-600v0,-117,100,-175,300,-175v200,0,300,58,300,175","w":1300},"e":{"d":"0,-1000r0,700v0,217,183,325,550,325v367,0,550,-108,550,-325r0,-150r-250,0r0,100v0,117,-100,175,-300,175v-200,0,-300,-58,-300,-175r0,-200r850,0r0,-450v0,-217,-183,-325,-550,-325v-367,0,-550,108,-550,325xm250,-750r0,-200v0,-117,100,-175,300,-175v200,0,300,58,300,175r0,200r-600,0","w":1300},"f":{"d":"390,0r0,-1100r250,0r0,-200r-250,0r0,-200v0,-100,83,-150,250,-150r0,-200r-236,0v-176,0,-264,100,-264,300r0,250r-140,0r0,200r140,0r0,1100r250,0","w":840},"g":{"d":"1100,-1300r0,1500v0,183,-183,275,-550,275v-367,0,-550,-92,-550,-275r0,-125r250,0r0,75v0,83,100,125,300,125v200,0,300,-42,300,-125r0,-325v0,133,-142,200,-425,200v-283,0,-425,-108,-425,-325r0,-700v0,-217,142,-325,425,-325v283,0,425,67,425,200r0,-175r250,0xm850,-350r0,-600v0,-117,-100,-175,-300,-175v-200,0,-300,58,-300,175r0,600v0,117,100,175,300,175v200,0,300,-58,300,-175","w":1300},"h":{"d":"0,0r250,0r0,-950v0,-117,100,-175,300,-175v200,0,300,58,300,175r0,950r250,0r0,-1000v0,-217,-142,-325,-425,-325v-283,0,-425,67,-425,200r0,-725r-250,0r0,1850","w":1300},"i":{"d":"0,-1300r0,1300r250,0r0,-1300r-250,0xm125,-1825v-97,0,-145,45,-145,137v0,92,48,138,145,138v97,0,145,-46,145,-138v0,-92,-48,-137,-145,-137","w":450},"j":{"d":"0,-1300r0,1400v0,117,-60,175,-179,175r-1,200r179,0v167,0,251,-87,251,-260r0,-1515r-250,0xm125,-1825v-97,0,-145,45,-145,137v0,92,48,138,145,138v97,0,145,-46,145,-138v0,-92,-48,-137,-145,-137","w":450},"k":{"d":"250,0r0,-219r188,-265r293,484r287,0r-421,-713r404,-587r-289,0r-462,654r0,-1204r-250,0r0,1850r250,0","w":1200},"l":{"d":"250,0r0,-1850r-250,0r0,1850r250,0","w":450},"m":{"d":"0,0r250,0r0,-950v0,-117,80,-175,240,-175v160,0,240,58,240,175r0,950r250,0r0,-950v0,-117,80,-175,240,-175v160,0,240,58,240,175r0,950r250,0r0,-1000v0,-217,-114,-325,-342,-325v-228,0,-366,53,-413,160v-37,-107,-163,-160,-380,-160v-217,0,-325,67,-325,200r0,-175r-250,0r0,1300","w":1910},"n":{"d":"0,0r250,0r0,-950v0,-117,100,-175,300,-175v200,0,300,58,300,175r0,950r250,0r0,-1000v0,-217,-142,-325,-425,-325v-283,0,-425,67,-425,200r0,-175r-250,0r0,1300","w":1300},"o":{"d":"850,-350v0,117,-100,175,-300,175v-200,0,-300,-58,-300,-175r0,-600v0,-117,100,-175,300,-175v200,0,300,58,300,175r0,600xm1100,-1000v0,-217,-183,-325,-550,-325v-367,0,-550,108,-550,325r0,700v0,217,183,325,550,325v367,0,550,-108,550,-325r0,-700","w":1300},"p":{"d":"0,-1300r0,1775r250,0r0,-650v0,133,142,200,425,200v283,0,425,-108,425,-325r0,-700v0,-217,-142,-325,-425,-325v-283,0,-425,67,-425,200r0,-175r-250,0xm250,-350r0,-600v0,-117,100,-175,300,-175v200,0,300,58,300,175r0,600v0,117,-100,175,-300,175v-200,0,-300,-58,-300,-175","w":1300},"q":{"d":"1100,-1300r0,1775r-250,0r0,-650v0,133,-138,200,-415,200v-277,0,-435,-108,-435,-325r0,-700v17,-217,163,-325,438,-325v275,0,412,67,412,200r0,-175r250,0xm850,-350r0,-600v0,-117,-100,-175,-300,-175v-200,0,-300,58,-300,175r0,600v0,117,100,175,300,175v200,0,300,-58,300,-175","w":1300},"r":{"d":"0,0r250,0r0,-950v0,-117,73,-175,220,-175v147,0,220,58,220,175r0,100r250,0r0,-150v0,-217,-115,-325,-345,-325v-230,0,-345,67,-345,200r0,-175r-250,0r0,1300","w":1140},"s":{"d":"275,-892v0,-173,65,-233,275,-233v183,0,275,58,275,175r0,100r250,0r0,-150v0,-217,-175,-325,-525,-325v-350,0,-525,108,-525,325r0,125v0,203,175,308,525,325v200,9,300,54,300,125r0,75v0,117,-100,175,-300,175v-200,0,-300,-58,-300,-175r0,-100r-250,0r0,150v0,217,183,325,550,325v367,0,550,-108,550,-325r0,-175v0,-185,-183,-285,-550,-300v-183,-8,-275,-47,-275,-117","w":1300},"t":{"d":"390,-1700r0,400r250,0r0,200r-250,0r0,700v0,133,83,200,250,200r0,200r-250,0v-167,0,-250,-100,-250,-300r0,-800r-140,0r0,-200r140,0r0,-400r250,0","w":840},"u":{"d":"1100,-1300r-250,0r0,950v0,117,-100,175,-300,175v-200,0,-300,-58,-300,-175r0,-950r-250,0r0,1000v0,217,142,325,425,325v283,0,425,-67,425,-200r0,175r250,0r0,-1300","w":1300},"v":{"d":"1260,-1300r-300,0r-330,1010r-330,-1010r-300,0r480,1300r300,0","w":1380},"w":{"d":"540,0r160,-730r160,730r250,0r290,-1300r-250,0r-180,840r-145,-840r-250,0r-155,840r-170,-840r-250,0r290,1300r250,0","w":1520},"x":{"d":"290,0r295,-465r295,465r290,0r-465,-635r465,-665r-290,0r-295,515r-295,-515r-290,0r465,665r-465,635r290,0","w":1290},"y":{"d":"691,216v-55,173,-150,259,-285,259r-186,0r0,-200r154,0v58,0,96,-42,121,-124r47,-151r-542,-1300r300,0r350,1008r330,-1008r300,0"},"z":{"d":"1000,-1100r0,-200r-1000,0r0,200r710,0r-710,900r0,200r1000,0r0,-200r-710,0","w":1200},"{":{"d":"600,-2000v-289,-12,-450,100,-450,350r0,500v0,100,-50,150,-150,150r0,200v100,0,150,50,150,150r0,500v-4,250,160,363,450,350r0,-200v-109,7,-200,-17,-200,-100r0,-600v0,-133,-50,-200,-150,-200v100,0,150,-67,150,-200r0,-600v-7,-82,90,-107,200,-100r0,-200","w":800},"|":{"d":"150,-2200r0,2650r-152,0r0,-2650r152,0","w":350},"}":{"d":"0,200v289,12,450,-100,450,-350r0,-500v0,-100,50,-150,150,-150r0,-200v-100,0,-150,-50,-150,-150r0,-500v4,-250,-160,-363,-450,-350r0,200v109,-7,200,17,200,100r0,600v0,133,50,200,150,200v-100,0,-150,67,-150,200r0,600v7,82,-90,107,-200,100r0,200","w":800},"~":{"d":"350,-900v-105,0,-134,50,-125,150r-225,0v-14,-245,112,-350,400,-350v133,0,213,33,238,100v25,67,79,100,162,100v105,0,134,-50,125,-150r225,0v14,245,-112,350,-400,350v-133,0,-213,-33,-238,-100v-25,-67,-79,-100,-162,-100","w":1350},"\u00c7":{"d":"525,-50r0,300r100,0v-2,-39,-2,-75,37,-75v53,0,38,84,38,135v0,43,-42,65,-125,65v-100,0,-133,-19,-125,-96r-100,1v-14,138,44,170,225,170v150,0,225,-37,225,-112r0,-127v0,-74,-30,-111,-88,-111v-58,0,-87,16,-87,47r0,-197r-100,0xm1200,-550r-250,0r0,200v0,117,-117,175,-350,175v-233,0,-350,-58,-350,-175r0,-1100v0,-117,117,-175,350,-175v233,0,350,58,350,175r0,200r250,0r0,-250v0,-217,-200,-325,-600,-325v-400,0,-600,108,-600,325r0,1200v0,217,200,325,600,325v400,0,600,-108,600,-325r0,-250"},"\u00d6":{"d":"225,-2075v0,-83,42,-125,125,-125v83,0,125,42,125,125v0,83,-42,125,-125,125v-83,0,-125,-42,-125,-125xm725,-2075v0,-83,42,-125,125,-125v83,0,125,42,125,125v0,83,-42,125,-125,125v-83,0,-125,-42,-125,-125xm950,-1450v0,-117,-117,-175,-350,-175v-233,0,-350,58,-350,175r0,1100v0,117,117,175,350,175v233,0,350,-58,350,-175r0,-1100xm1200,-300v0,217,-200,325,-600,325v-400,0,-600,-108,-600,-325r0,-1200v0,-217,200,-325,600,-325v400,0,600,108,600,325r0,1200"},"\u00dc":{"d":"250,-2075v0,-83,42,-125,125,-125v83,0,125,42,125,125v0,83,-42,125,-125,125v-83,0,-125,-42,-125,-125xm750,-2075v0,-83,42,-125,125,-125v83,0,125,42,125,125v0,83,-42,125,-125,125v-83,0,-125,-42,-125,-125xm1200,-300v0,217,-200,325,-600,325v-400,0,-600,-108,-600,-325r0,-1500r250,0r0,1450v0,117,117,175,350,175v233,0,350,-58,350,-175r0,-1450r250,0r0,1500"},"\u00e7":{"d":"475,-50r0,300r100,0v-2,-39,-2,-75,37,-75v53,0,38,84,38,135v0,43,-42,65,-125,65v-100,0,-133,-19,-125,-96r-100,1v-14,138,44,170,225,170v150,0,225,-37,225,-112r0,-127v0,-74,-30,-111,-88,-111v-58,0,-87,16,-87,47r0,-197r-100,0xm1100,-500r-250,0r0,150v0,117,-100,175,-300,175v-200,0,-300,-58,-300,-175r0,-600v0,-117,100,-175,300,-175v200,0,300,58,300,175r0,150r250,0r0,-200v0,-217,-183,-325,-550,-325v-367,0,-550,108,-550,325r0,700v0,217,183,325,550,325v367,0,550,-108,550,-325r0,-200","w":1300},"\u00f6":{"d":"175,-1575v0,-83,42,-125,125,-125v83,0,125,42,125,125v0,83,-42,125,-125,125v-83,0,-125,-42,-125,-125xm675,-1575v0,-83,42,-125,125,-125v83,0,125,42,125,125v0,83,-42,125,-125,125v-83,0,-125,-42,-125,-125xm850,-350v0,117,-100,175,-300,175v-200,0,-300,-58,-300,-175r0,-600v0,-117,100,-175,300,-175v200,0,300,58,300,175r0,600xm1100,-1000v0,-217,-183,-325,-550,-325v-367,0,-550,108,-550,325r0,700v0,217,183,325,550,325v367,0,550,-108,550,-325r0,-700","w":1300},"\u00fc":{"d":"175,-1575v0,-83,42,-125,125,-125v83,0,125,42,125,125v0,83,-42,125,-125,125v-83,0,-125,-42,-125,-125xm675,-1575v0,-83,42,-125,125,-125v83,0,125,42,125,125v0,83,-42,125,-125,125v-83,0,-125,-42,-125,-125xm1100,-1300r-250,0r0,950v0,117,-100,175,-300,175v-200,0,-300,-58,-300,-175r0,-950r-250,0r0,1000v0,217,142,325,425,325v283,0,425,-67,425,-200r0,175r250,0r0,-1300","w":1300},"\u0131":{"d":"0,-1300r0,1300r250,0r0,-1300r-250,0","w":450},"\u00a0":{"w":600}}});
/*!
 * The following copyright notice may not be removed under any circumstances.
 * 
 * Copyright:
 * Enigmatic ©2003 by Starving-4 Entertainment, dart@puzzlers.org This font is
 * licensed under the terms of the Design Science Licence:
 * http://dsl.org/copyleft/dsl.txt
 * 
 * Description:
 * I created this font in FCP's thirty day trial. Since then it's undergone a
 * number of renovations, and it's looking pretty good.
 * 
 * Manufacturer:
 * Starving-4 Entertainment
 * 
 * Designer:
 * Darren Rigby
 * 
 * Vendor URL:
 * http://dartcanada.tripod.com/Objets
 */
Cufon.registerFont({"w":1450,"face":{"font-family":"Enigmatic Bold","font-weight":700,"font-stretch":"normal","units-per-em":"2400","panose-1":"2 0 0 0 0 0 0 0 0 0","ascent":"1920","descent":"-480","x-height":"25","bbox":"-180 -2200 2060 475","underline-thickness":"48","underline-position":"-140","unicode-range":"U+0020-U+0131"},"glyphs":{" ":{"w":600},"!":{"d":"275,-450r100,-1350r-375,0r100,1350r175,0xm187,0v125,0,188,-47,188,-140v0,-93,-63,-140,-188,-140v-125,0,-187,47,-187,140v0,93,62,140,187,140","w":575},"\"":{"d":"625,-1400r100,0v70,-167,125,-282,125,-350v0,-100,-58,-150,-175,-150v-117,0,-175,50,-175,150v0,68,55,183,125,350xm125,-1400r100,0v70,-167,125,-282,125,-350v0,-100,-58,-150,-175,-150v-117,0,-175,50,-175,150v0,68,55,183,125,350","w":1050},"#":{"d":"100,0r250,0r90,-400r350,0r-90,400r250,0r90,-400r210,0r0,-150r-180,0r160,-700r220,0r0,-150r-190,0r90,-400r-250,0r-90,400r-350,0r90,-400r-250,0r-90,400r-210,0r0,150r175,0r-150,700r-225,0r0,150r190,0xm475,-550r150,-700r350,0r-155,700r-345,0","w":1650},"$":{"d":"25,-1175v-9,171,188,292,500,355r0,420v-100,0,-150,-42,-150,-125r0,-100r-375,0r0,150v0,217,175,325,525,325r0,175r225,0r0,-175v333,0,500,-108,500,-325r0,-200v0,-200,-167,-333,-500,-400r0,-400v67,0,100,42,100,125r0,100r375,0r0,-150v0,-217,-158,-325,-475,-325r0,-125r-225,0r0,125v-333,0,-500,108,-500,325r0,225xm505,-1112v-93,-4,-105,-116,-105,-238v0,-83,42,-125,125,-125r0,370xm750,-785v73,7,110,60,110,160r0,100v0,83,-37,125,-110,125r0,-385"},"%":{"d":"1600,-650v0,-150,-125,-225,-375,-225v-250,0,-375,75,-375,225r0,450v0,150,125,225,375,225v250,0,375,-75,375,-225r0,-450xm1350,-250v0,67,-42,100,-125,100v-83,0,-125,-33,-125,-100r0,-350v0,-67,42,-100,125,-100v83,0,125,33,125,100r0,350xm1250,-1800r-1250,1800r350,0r1250,-1800r-350,0xm750,-1600v0,-150,-125,-225,-375,-225v-250,0,-375,75,-375,225r0,450v0,150,125,225,375,225v250,0,375,-75,375,-225r0,-450xm500,-1200v0,67,-42,100,-125,100v-83,0,-125,-33,-125,-100r0,-350v0,-67,42,-100,125,-100v83,0,125,33,125,100r0,350","w":1800},"&":{"d":"710,-1600v-170,0,-235,46,-235,175v0,49,20,109,59,179r646,701r-5,-205r375,0r0,350v0,57,-25,107,-74,150r197,250r-424,0r-28,-32v-114,48,-279,57,-496,57v-483,0,-725,-158,-725,-475r0,-400v0,-150,83,-242,250,-275v-128,-110,-150,-190,-150,-375v0,-217,199,-325,598,-325v435,0,652,108,652,325r0,250r-375,0r0,-200v0,-100,-88,-150,-265,-150xm375,-500v0,200,117,300,350,300v137,0,243,-15,320,-45r-550,-605v-80,-100,-120,-83,-120,50r0,300","w":1795},"'":{"d":"162,-1520v0,83,-54,125,-162,125r0,75v217,0,325,-113,325,-340v0,-93,-54,-140,-163,-140v-108,0,-162,47,-162,140v0,93,54,140,162,140","w":525},"(":{"d":"650,-2000v-433,67,-650,433,-650,1100v0,667,217,1033,650,1100r0,-200v-183,-100,-275,-400,-275,-900v0,-500,92,-800,275,-900r0,-200","w":825},")":{"d":"0,200v433,-67,650,-433,650,-1100v0,-667,-217,-1033,-650,-1100r0,200v183,100,275,400,275,900v0,500,-92,800,-275,900r0,200","w":825},"*":{"d":"337,-1431r-187,-130r34,-104r228,5r66,-218r109,0r66,219r228,-5r34,104r-188,130r75,216r-88,64r-182,-139r-181,138r-89,-64","w":1064},"+":{"d":"375,-400r0,-375r-375,0r0,-250r375,0r0,-375r250,0r0,375r375,0r0,250r-375,0r0,375r-250,0","w":1200},",":{"d":"187,0v0,117,-62,175,-187,175r0,75v250,0,375,-138,375,-415v0,-110,-63,-165,-188,-165v-125,0,-187,55,-187,165v0,110,62,165,187,165","w":575},"-":{"d":"1000,-775r0,-250r-1000,0r0,250r1000,0","w":1200},"\u2010":{"d":"1000,-775r0,-250r-1000,0r0,250r1000,0","w":1200},".":{"d":"185,0v123,0,185,-54,185,-163v0,-111,-62,-167,-185,-167v-123,0,-185,56,-185,167v0,109,62,163,185,163","w":644},"\/":{"d":"1200,-1850r-980,1900r-320,0r980,-1900r320,0","w":1099},"0":{"d":"790,-350v0,83,-63,125,-190,125v-127,0,-190,-42,-190,-125r0,-1100v0,-83,63,-125,190,-125v127,0,190,42,190,125r0,1100xm1165,-1500v0,-217,-188,-325,-565,-325v-377,0,-565,108,-565,325r0,1200v0,217,188,325,565,325v377,0,565,-108,565,-325r0,-1200","w":1400},"1":{"d":"330,-1650r0,250r240,0r0,1400r375,0r0,-1800r-375,0v0,100,-80,150,-240,150","w":1400},"2":{"d":"875,-1250r0,-200v0,-83,-84,-125,-252,-125v-165,0,-248,42,-248,125r0,200r-375,0r0,-250v0,-217,208,-325,625,-325v417,0,625,108,625,325r0,300v0,167,-168,283,-505,350r-240,50v-87,17,-130,67,-130,150r0,400r875,0r0,250r-1250,0r0,-700v0,-167,168,-283,505,-350r240,-50v87,-17,130,-67,130,-150"},"3":{"d":"625,-1575v167,0,250,42,250,125r0,250v0,83,-42,125,-125,125r-325,0r0,250r325,0v83,0,125,42,125,125r0,350v0,83,-83,125,-250,125v-167,0,-250,-42,-250,-125r0,-200r-375,0r0,250v0,217,208,325,625,325v417,0,625,-108,625,-325r0,-350v0,-200,-92,-300,-275,-300v183,0,275,-100,275,-300r0,-250v0,-217,-208,-325,-625,-325v-417,0,-625,108,-625,325r0,250r375,0r0,-200v0,-83,83,-125,250,-125"},"4":{"d":"1200,-575r-110,0r0,-1225r-250,0r-840,1225r0,250r715,0r0,325r375,0r0,-325r110,0r0,-250xm300,-575r415,-625r0,625r-415,0","w":1400},"5":{"d":"-25,-1800r0,950r375,0r0,-100v0,-83,83,-125,250,-125v167,0,250,42,250,125r0,600v0,83,-83,125,-250,125v-167,0,-250,-42,-250,-125r0,-200r-375,0r0,250v0,217,208,325,625,325v417,0,625,-108,625,-325r0,-700v0,-217,-145,-325,-437,-325v-292,0,-438,67,-438,200r0,-425r875,0r0,-250r-1250,0"},"6":{"d":"-25,-300r0,-1200v0,-217,208,-325,625,-325v417,0,625,108,625,325r0,250r-375,0r0,-200v0,-83,-83,-125,-250,-125v-167,0,-250,42,-250,125r0,525v0,-133,146,-200,438,-200v292,0,437,108,437,325r0,500v0,217,-208,325,-625,325v-417,0,-625,-108,-625,-325xm350,-750r0,400v0,83,83,125,250,125v167,0,250,-42,250,-125r0,-400v0,-83,-83,-125,-250,-125v-167,0,-250,42,-250,125"},"7":{"d":"0,-1800r0,250r915,0v-263,161,-443,367,-539,616v-96,249,-167,561,-213,934r377,0v3,-194,41,-450,114,-768v73,-318,255,-565,546,-742r0,-290r-1200,0","w":1400},"8":{"d":"250,-950v-183,0,-275,100,-275,300r0,350v0,217,208,325,625,325v417,0,625,-108,625,-325r0,-350v0,-200,-92,-300,-275,-300v167,0,250,-100,250,-300r0,-250v0,-217,-200,-325,-600,-325v-400,0,-600,108,-600,325r0,250v0,200,83,300,250,300xm375,-1200r0,-250v0,-117,75,-175,225,-175v150,0,225,58,225,175r0,250v0,100,-75,150,-225,150v-150,0,-225,-50,-225,-150xm850,-700r0,350v0,117,-83,175,-250,175v-167,0,-250,-58,-250,-175r0,-350v0,-100,83,-150,250,-150v167,0,250,50,250,150"},"9":{"d":"1225,-1500r0,1200v0,217,-208,325,-625,325v-417,0,-625,-108,-625,-325r0,-250r375,0r0,200v0,83,83,125,250,125v167,0,250,-42,250,-125r0,-525v0,133,-146,200,-438,200v-292,0,-437,-108,-437,-325r0,-500v0,-217,208,-325,625,-325v417,0,625,108,625,325xm850,-1050r0,-400v0,-83,-83,-125,-250,-125v-167,0,-250,42,-250,125r0,400v0,83,83,125,250,125v167,0,250,-42,250,-125"},":":{"d":"162,-720v125,0,188,-55,188,-165v0,-110,-63,-165,-188,-165v-125,0,-187,55,-187,165v0,110,62,165,187,165xm162,0v125,0,188,-55,188,-165v0,-110,-63,-165,-188,-165v-125,0,-187,55,-187,165v0,110,62,165,187,165","w":575},";":{"d":"162,-720v125,0,188,-55,188,-165v0,-110,-63,-165,-188,-165v-125,0,-187,55,-187,165v0,110,62,165,187,165xm162,0v0,117,-62,175,-187,175r0,75v250,0,375,-138,375,-415v0,-110,-63,-165,-188,-165v-125,0,-187,55,-187,165v0,110,62,165,187,165","w":575},"<":{"d":"800,-250r200,-200r-600,-450r600,-450r-200,-200r-800,650","w":1200},"=":{"d":"1200,-550r0,-250r-1050,0r0,250r1050,0xm1200,-1000r0,-250r-1050,0r0,250r1050,0","w":1350},">":{"d":"200,-1550r-200,200r600,450r-600,450r200,200r800,-650","w":1200},"?":{"d":"850,-1175r0,-275v0,-83,-86,-125,-259,-125v-161,0,-241,42,-241,125r0,200r-375,0r0,-250v0,-217,206,-325,618,-325v421,0,632,108,632,325r0,350v0,180,-96,259,-268,315r-216,70v-29,48,-11,142,-16,215r-375,0r0,-187v0,-142,90,-200,242,-263r218,-90v27,-17,40,-45,40,-85xm537,0v125,0,188,-55,188,-165v0,-110,-63,-165,-188,-165v-125,0,-187,55,-187,165v0,110,62,165,187,165"},"@":{"d":"740,-425v-225,-1,-315,-102,-315,-315v0,-207,125,-310,375,-310v83,0,125,-40,125,-120v0,-53,-42,-80,-125,-80v-83,0,-125,42,-125,125r-250,0v-14,-229,104,-325,375,-325v250,0,375,92,375,275r0,500v0,50,17,75,50,75v33,0,50,-25,50,-75r0,-575v0,-217,-158,-325,-475,-325v-317,0,-475,108,-475,325r0,700v0,200,158,300,475,300r550,0r0,250r-550,0v-567,0,-850,-167,-850,-500r0,-800v0,-350,283,-525,850,-525v567,0,850,175,850,525r0,600v0,183,-117,275,-350,275v-251,0,-375,-50,-375,-200v0,133,-62,200,-185,200xm800,-850v-83,0,-125,42,-125,125v0,67,42,100,125,100v83,0,125,-62,125,-186r0,-129v0,60,-42,90,-125,90","w":1900},"A":{"d":"610,-1800r280,0r625,1800r-390,0r-160,-450r-505,0r-160,450r-315,0xm885,-700r-170,-530r-160,530r330,0","w":1650,"k":{"W":500}},"B":{"d":"-25,0r875,0v250,0,375,-100,375,-300r0,-350v0,-200,-117,-300,-350,-300v217,0,325,-83,325,-250r0,-300v0,-200,-125,-300,-375,-300r-850,0r0,1800xm350,-1075r0,-475r350,0v83,0,125,42,125,125r0,225v0,83,-42,125,-125,125r-350,0xm850,-700r0,325v0,83,-42,125,-125,125r-375,0r0,-575r375,0v83,0,125,42,125,125"},"C":{"d":"1225,-550r-375,0r0,200v0,83,-83,125,-250,125v-167,0,-250,-42,-250,-125r0,-1100v0,-100,83,-150,250,-150v167,0,250,50,250,150r0,200r375,0r0,-250v0,-217,-208,-325,-625,-325v-417,0,-625,108,-625,325r0,1200v0,217,208,325,625,325v417,0,625,-108,625,-325r0,-250"},"D":{"d":"-25,0r875,0v250,0,375,-100,375,-300r0,-1200v0,-200,-125,-300,-375,-300r-875,0r0,1800xm350,-250r0,-1325r375,0v83,0,125,50,125,150r0,1050v0,83,-42,125,-125,125r-375,0"},"E":{"d":"350,-1550r0,500r525,0r0,250r-525,0r0,550r650,0r0,250r-1025,0r0,-1800r1025,0r0,250r-650,0","w":1225},"F":{"d":"1000,-1550r0,-250r-1025,0r0,1800r375,0r0,-800r525,0r0,-250r-525,0r0,-500r650,0","w":1225},"G":{"d":"1225,-1025r-740,0r0,250r365,0r0,425v0,83,-83,125,-250,125v-167,0,-250,-42,-250,-125r0,-1100v0,-83,83,-125,250,-125v167,0,250,42,250,125r0,200r375,0r0,-250v0,-217,-208,-325,-625,-325v-417,0,-625,108,-625,325r0,1200v0,217,208,325,625,325v233,0,370,-67,409,-200r78,175r138,0r0,-1025"},"H":{"d":"-25,-1800r0,1800r375,0r0,-775r400,0r0,775r375,0r0,-1800r-375,0r0,775r-400,0r0,-775r-375,0","w":1350},"I":{"d":"-25,0r0,-200r100,0r0,-1400r-100,0r0,-200r575,0r0,200r-100,0r0,1400r100,0r0,200r-575,0","w":750},"J":{"d":"1075,-1800r-375,0r0,1450v0,83,-58,125,-175,125v-117,0,-175,-42,-175,-125r0,-200r-375,0r0,250v0,217,183,325,550,325v367,0,550,-108,550,-325r0,-1500","w":1300},"K":{"d":"350,0r0,-670r75,-135r350,805r405,0r-497,-1122r423,-678r-289,0r-467,754r0,-754r-375,0r0,1800r375,0","w":1350},"L":{"d":"1000,0r0,-250r-650,0r0,-1550r-375,0r0,1800r1025,0","w":1225,"k":{"T":500}},"M":{"d":"1675,-1800r-400,0r-405,1324r-420,-1324r-450,0r0,1800r275,0r0,-1205r325,1205r375,0r325,-1135r0,1135r375,0r0,-1800","w":1875},"N":{"d":"300,-1800r525,975r0,-975r275,0r0,1800r-300,0r-525,-975r0,975r-275,0r0,-1800r300,0","w":1300},"O":{"d":"850,-1450v0,-83,-83,-125,-250,-125v-167,0,-250,42,-250,125r0,1100v0,83,83,125,250,125v167,0,250,-42,250,-125r0,-1100xm1225,-300v0,217,-208,325,-625,325v-417,0,-625,-108,-625,-325r0,-1200v0,-217,208,-325,625,-325v417,0,625,108,625,325r0,1200"},"P":{"d":"-25,-1800r775,0v317,0,475,117,475,350r0,400v0,250,-158,375,-475,375r-400,0r0,675r-375,0r0,-1800xm650,-925v133,0,200,-58,200,-175r0,-275v0,-117,-67,-175,-200,-175r-300,0r0,625r300,0","w":1448},"Q":{"d":"850,-350r-188,-196r-294,99r232,222v-167,0,-250,-42,-250,-125r0,-1100v0,-83,83,-125,250,-125v167,0,250,42,250,125r0,1100xm1225,-1500v0,-217,-208,-325,-625,-325v-417,0,-625,108,-625,325r0,1200v0,217,208,325,625,325v113,0,188,-1,225,-3r105,103r325,-115r-126,-114v67,-59,96,-124,96,-196r0,-1200"},"R":{"d":"-25,0r375,0r0,-775r375,0v83,0,125,42,125,125r0,550v0,67,33,100,100,100r375,0v-67,0,-100,-33,-100,-100r0,-500v0,-200,-92,-300,-275,-300v183,0,275,-100,275,-300r0,-300v0,-200,-142,-300,-425,-300r-825,0r0,1800xm350,-1025r0,-525r375,0v83,0,125,42,125,125r0,275v0,83,-42,125,-125,125r-375,0"},"S":{"d":"350,-1350r0,-100v0,-83,83,-125,250,-125v167,0,250,42,250,125r0,200r375,0r0,-250v0,-217,-208,-325,-625,-325v-417,0,-625,108,-625,325r0,300v0,167,168,283,505,350r240,62v87,25,130,88,130,188r0,250v0,83,-83,125,-250,125v-167,0,-250,-42,-250,-125r0,-200r-375,0r0,250v0,217,208,325,625,325v417,0,625,-108,625,-325r0,-400v0,-200,-168,-333,-505,-400r-240,-62v-87,-25,-130,-88,-130,-188"},"T":{"d":"810,0r0,-1550r445,0r0,-250r-1255,0r0,250r445,0r0,1550r365,0","w":1355},"U":{"d":"1225,-300v0,217,-208,325,-625,325v-417,0,-625,-108,-625,-325r0,-1500r375,0r0,1450v0,83,83,125,250,125v200,0,300,-42,300,-125r0,-1450r325,0r0,1500"},"V":{"d":"1500,-1800r-300,0r-400,1310r-400,-1310r-425,0r620,1800r310,0","w":1645},"W":{"d":"830,0r170,-950r160,950r400,0r500,-1800r-280,0r-335,1275r-240,-1275r-345,0r-170,1210r-265,-1210r-425,0r475,1800r355,0","w":2180},"X":{"d":"-15,0r335,0r370,-675r400,675r405,0r-565,-935r550,-865r-320,0r-365,665r-405,-665r-390,0r540,890","w":1609},"Y":{"d":"1450,-1800r-300,0r-385,855r-375,-855r-405,0r555,1150r0,650r365,0r0,-650","w":1585},"Z":{"d":"1050,-1550r0,-250r-1050,0r0,250r650,0r-650,1300r0,250r1050,0r0,-250r-650,0","w":1250},"[":{"d":"575,-1750r0,-250r-600,0r0,2200r600,0r0,-250r-225,0r0,-1700r225,0","w":825},"\\":{"d":"0,-1850r900,1900r375,0r-900,-1900r-375,0","w":1275},"]":{"d":"0,-50r0,250r600,0r0,-2200r-600,0r0,250r225,0r0,1700r-225,0","w":825},"^":{"d":"375,-1800r325,600r-125,0r-225,-200r-225,200r-123,0r323,-600r50,0","w":900},"_":{"d":"1400,300r0,-150r-1400,0r0,150r1400,0","w":1400},"`":{"d":"350,-1635v0,-110,-63,-165,-188,-165v-125,0,-187,55,-187,165v0,243,125,365,375,365r0,-75v-125,0,-188,-42,-188,-125v125,0,188,-55,188,-165","w":525},"a":{"d":"440,25v-310,0,-465,-108,-465,-325r0,-170v0,-223,175,-335,525,-335v123,0,150,-38,150,-145v0,-83,-50,-125,-150,-125v-95,0,-123,69,-115,175r-375,0r0,-100v0,-217,163,-325,490,-325v350,0,525,108,525,325r0,825v0,117,33,175,100,175r-375,0v-67,0,-100,-45,-100,-135v0,107,-70,160,-210,160xm500,-555v-129,0,-150,76,-150,205v0,83,50,125,150,125v100,0,150,-62,150,-186r0,-219v0,50,-50,75,-150,75","w":1250},"b":{"d":"-25,0r0,-1850r375,0r0,725v0,-133,130,-200,388,-200v258,0,387,108,387,325r0,700v0,217,-129,325,-387,325v-258,0,-388,-67,-388,-200r0,175r-375,0xm350,-950r0,600v0,83,67,125,200,125v133,0,200,-42,200,-125r0,-600v0,-83,-67,-125,-200,-125v-133,0,-200,42,-200,125","w":1350},"c":{"d":"1125,-500r-400,0r0,150v0,83,-58,125,-175,125v-133,0,-200,-42,-200,-125r0,-600v0,-83,67,-125,200,-125v117,0,175,42,175,125r0,150r400,0r0,-200v0,-217,-192,-325,-575,-325v-383,0,-575,108,-575,325r0,700v0,217,192,325,575,325v383,0,575,-108,575,-325r0,-200","w":1350},"d":{"d":"1125,0r0,-1850r-375,0r0,725v0,-133,-130,-200,-388,-200v-258,0,-387,108,-387,325r0,700v0,217,129,325,387,325v258,0,388,-67,388,-200r0,175r375,0xm750,-950r0,600v0,83,-67,125,-200,125v-133,0,-200,-42,-200,-125r0,-600v0,-83,67,-125,200,-125v133,0,200,42,200,125","w":1350},"e":{"d":"-25,-1000r0,700v0,217,192,325,575,325v383,0,575,-108,575,-325r0,-100r-375,0v12,130,-43,175,-200,175v-133,0,-200,-42,-200,-125r0,-175r775,0r0,-475v0,-217,-192,-325,-575,-325v-383,0,-575,108,-575,325xm350,-775r0,-175v0,-83,67,-125,200,-125v133,0,200,42,200,125r0,175r-400,0","w":1350},"f":{"d":"490,0r0,-1050r150,0r0,-250r-150,0r0,-175v0,-83,50,-125,150,-125r0,-250r-236,0v-193,0,-289,100,-289,300r0,250r-115,0r0,250r115,0r0,1050r375,0","w":840},"g":{"d":"1125,-1300r0,1500v0,183,-192,275,-575,275v-383,0,-575,-92,-575,-275r0,-75r375,0r0,25v0,50,67,75,200,75v133,0,200,-25,200,-75r0,-325v0,133,-130,200,-388,200v-258,0,-387,-108,-387,-325r0,-700v0,-217,129,-325,387,-325v258,0,388,67,388,200r0,-175r375,0xm750,-350r0,-600v0,-83,-67,-125,-200,-125v-133,0,-200,42,-200,125r0,600v0,83,67,125,200,125v133,0,200,-42,200,-125","w":1350},"h":{"d":"-25,0r375,0r0,-950v0,-83,67,-125,200,-125v117,0,175,42,175,125r0,950r400,0r0,-1000v0,-217,-129,-325,-387,-325v-258,0,-388,67,-388,200r0,-725r-375,0r0,1850","w":1350},"i":{"d":"-25,-1300r0,1300r375,0r0,-1300r-375,0xm162,-1870v-138,0,-207,57,-207,172v0,115,69,173,207,173v138,0,208,-58,208,-173v0,-115,-70,-172,-208,-172","w":575},"j":{"d":"-25,-1300r0,1375v0,100,-51,150,-154,150r-1,250r179,0v234,0,351,-87,351,-260r0,-1515r-375,0xm162,-1905v-138,0,-207,59,-207,177v0,118,69,178,207,178v138,0,208,-60,208,-178v0,-118,-70,-177,-208,-177","w":525},"k":{"d":"350,0r0,-319r88,-165r197,484r415,0r-350,-825r301,-475r-289,0r-362,654r0,-1204r-375,0r0,1850r375,0","w":1250},"l":{"d":"375,0r0,-1850r-375,0r0,1850r375,0","w":575},"m":{"d":"-25,0r375,0r0,-925v0,-100,54,-150,162,-150v108,0,163,50,163,150r0,925r365,0r0,-925v0,-100,53,-150,160,-150v107,0,160,50,160,150r0,925r375,0r0,-1000v0,-217,-112,-325,-337,-325v-225,0,-361,53,-408,160v-37,-107,-153,-160,-348,-160v-195,0,-292,67,-292,200r0,-175r-375,0r0,1300","w":1960},"n":{"d":"-25,0r375,0r0,-925v0,-100,67,-150,200,-150v133,0,200,50,200,150r0,925r375,0r0,-1000v0,-217,-129,-325,-387,-325v-258,0,-388,67,-388,200r0,-175r-375,0r0,1300","w":1350},"o":{"d":"750,-350v0,83,-67,125,-200,125v-133,0,-200,-42,-200,-125r0,-600v0,-83,67,-125,200,-125v133,0,200,42,200,125r0,600xm1125,-1000v0,-217,-192,-325,-575,-325v-383,0,-575,108,-575,325r0,700v0,217,192,325,575,325v383,0,575,-108,575,-325r0,-700","w":1350},"p":{"d":"-25,-1300r0,1775r375,0r0,-650v0,133,130,200,388,200v258,0,387,-108,387,-325r0,-700v0,-217,-129,-325,-387,-325v-258,0,-388,67,-388,200r0,-175r-375,0xm350,-375r0,-550v0,-100,67,-150,200,-150v133,0,200,50,200,150r0,550v0,100,-67,150,-200,150v-133,0,-200,-50,-200,-150","w":1350},"q":{"d":"1125,-1300r0,1775r-375,0r0,-650v0,133,-130,200,-388,200v-258,0,-387,-108,-387,-325r0,-700v0,-217,129,-325,387,-325v258,0,388,67,388,200r0,-175r375,0xm750,-375r0,-550v0,-100,-67,-150,-200,-150v-133,0,-200,50,-200,150r0,550v0,100,67,150,200,150v133,0,200,-50,200,-150","w":1350},"r":{"d":"-25,0r375,0r0,-950v0,-83,44,-125,132,-125v88,0,133,42,133,125r0,100r375,0r0,-150v0,-217,-107,-325,-320,-325v-213,0,-320,67,-320,200r0,-175r-375,0r0,1300","w":1190},"s":{"d":"550,-800v-129,-14,-175,-54,-175,-150v0,-83,58,-125,175,-125v117,0,175,42,175,125r0,100r375,0r0,-150v0,-217,-183,-325,-550,-325v-367,0,-550,108,-550,325r0,125v0,203,184,315,550,360v145,18,200,59,200,165v0,83,-67,125,-200,125v-133,0,-200,-42,-200,-125r0,-100r-375,0r0,150v0,217,192,325,575,325v383,0,575,-108,575,-325r0,-175v0,-185,-193,-282,-575,-325","w":1350},"t":{"d":"490,-1700r0,400r150,0r0,250r-150,0r0,650v0,100,50,150,150,150r0,250r-175,0v-233,0,-350,-100,-350,-300r0,-750r-140,0r0,-250r140,0r0,-400r375,0","w":865},"u":{"d":"1125,-1300r-375,0r0,925v0,100,-67,150,-200,150v-133,0,-200,-50,-200,-150r0,-925r-375,0r0,1000v0,217,129,325,387,325v258,0,388,-67,388,-200r0,175r375,0r0,-1300","w":1350},"v":{"d":"1260,-1300r-315,0r-270,925r-270,-925r-415,0r490,1300r330,0","w":1390},"w":{"d":"615,0r160,-730r160,730r325,0r290,-1300r-250,0r-180,840r-145,-840r-325,0r-155,840r-170,-840r-325,0r290,1300r325,0","w":1670},"x":{"d":"290,0r255,-415r245,415r405,0r-420,-695r395,-605r-290,0r-245,405r-245,-405r-390,0r410,685r-435,615r315,0","w":1315},"y":{"d":"691,216v-55,173,-150,259,-285,259r-186,0r0,-250r130,0v91,-1,115,-135,152,-205r-512,-1320r400,0r315,853r295,-853r280,0","w":1400},"z":{"d":"1000,-1050r0,-250r-1000,0r0,250r585,0r-585,800r0,250r1000,0r0,-250r-585,0","w":1200},"{":{"d":"550,-2000v-283,0,-425,117,-425,350r0,500v0,100,-42,150,-125,150r0,200v83,0,125,50,125,150r0,500v0,233,142,350,425,350r100,0r0,-250r-75,0v-50,0,-75,-33,-75,-100r0,-550v0,-133,-67,-200,-200,-200v133,0,200,-67,200,-200r0,-550v0,-67,25,-100,75,-100r75,0r0,-250r-100,0","w":850},"|":{"d":"175,-2200r0,2650r-203,0r0,-2650r203,0","w":401},"}":{"d":"100,200v283,0,425,-117,425,-350r0,-500v0,-100,42,-150,125,-150r0,-200v-83,0,-125,-50,-125,-150r0,-500v0,-233,-142,-350,-425,-350r-100,0r0,250r75,0v50,0,75,33,75,100r0,550v0,133,67,200,200,200v-133,0,-200,67,-200,200r0,550v0,67,-25,100,-75,100r-75,0r0,250r100,0","w":850},"~":{"d":"350,-900v-105,0,-134,50,-125,150r-225,0v-14,-245,112,-350,400,-350v133,0,213,33,238,100v25,67,79,100,162,100v105,0,134,-50,125,-150r225,0v14,245,-112,350,-400,350v-133,0,-213,-33,-238,-100v-25,-67,-79,-100,-162,-100","w":1350},"\u00c7":{"d":"525,-50r0,300r100,0v-2,-39,-2,-75,37,-75v53,0,38,84,38,135v0,43,-42,65,-125,65v-100,0,-133,-19,-125,-96r-100,1v-14,138,44,170,225,170v150,0,225,-37,225,-112r0,-127v0,-74,-30,-111,-88,-111v-58,0,-87,16,-87,47r0,-197r-100,0xm1225,-550r-375,0r0,200v0,83,-83,125,-250,125v-167,0,-250,-42,-250,-125r0,-1100v0,-100,83,-150,250,-150v167,0,250,50,250,150r0,200r375,0r0,-250v0,-217,-208,-325,-625,-325v-417,0,-625,108,-625,325r0,1200v0,217,208,325,625,325v417,0,625,-108,625,-325r0,-250","w":1400},"\u00d6":{"d":"225,-2075v0,-83,42,-125,125,-125v83,0,125,42,125,125v0,83,-42,125,-125,125v-83,0,-125,-42,-125,-125xm725,-2075v0,-83,42,-125,125,-125v83,0,125,42,125,125v0,83,-42,125,-125,125v-83,0,-125,-42,-125,-125xm850,-1450v0,-83,-83,-125,-250,-125v-167,0,-250,42,-250,125r0,1100v0,83,83,125,250,125v167,0,250,-42,250,-125r0,-1100xm1225,-300v0,217,-208,325,-625,325v-417,0,-625,-108,-625,-325r0,-1200v0,-217,208,-325,625,-325v417,0,625,108,625,325r0,1200","w":1400},"\u00dc":{"d":"250,-2075v0,-83,42,-125,125,-125v83,0,125,42,125,125v0,83,-42,125,-125,125v-83,0,-125,-42,-125,-125xm750,-2075v0,-83,42,-125,125,-125v83,0,125,42,125,125v0,83,-42,125,-125,125v-83,0,-125,-42,-125,-125xm1225,-300v0,217,-208,325,-625,325v-417,0,-625,-108,-625,-325r0,-1500r375,0r0,1450v0,83,83,125,250,125v200,0,300,-42,300,-125r0,-1450r325,0r0,1500","w":1400},"\u00e7":{"d":"475,-50r0,300r100,0v-2,-39,-2,-75,37,-75v53,0,38,84,38,135v0,43,-42,65,-125,65v-100,0,-133,-19,-125,-96r-100,1v-14,138,44,170,225,170v150,0,225,-37,225,-112r0,-127v0,-74,-30,-111,-88,-111v-58,0,-87,16,-87,47r0,-197r-100,0xm1125,-500r-400,0r0,150v0,83,-58,125,-175,125v-133,0,-200,-42,-200,-125r0,-600v0,-83,67,-125,200,-125v117,0,175,42,175,125r0,150r400,0r0,-200v0,-217,-192,-325,-575,-325v-383,0,-575,108,-575,325r0,700v0,217,192,325,575,325v383,0,575,-108,575,-325r0,-200","w":1300},"\u00f6":{"d":"175,-1575v0,-83,42,-125,125,-125v83,0,125,42,125,125v0,83,-42,125,-125,125v-83,0,-125,-42,-125,-125xm675,-1575v0,-83,42,-125,125,-125v83,0,125,42,125,125v0,83,-42,125,-125,125v-83,0,-125,-42,-125,-125xm750,-350v0,83,-67,125,-200,125v-133,0,-200,-42,-200,-125r0,-600v0,-83,67,-125,200,-125v133,0,200,42,200,125r0,600xm1125,-1000v0,-217,-192,-325,-575,-325v-383,0,-575,108,-575,325r0,700v0,217,192,325,575,325v383,0,575,-108,575,-325r0,-700","w":1300},"\u00fc":{"d":"175,-1575v0,-83,42,-125,125,-125v83,0,125,42,125,125v0,83,-42,125,-125,125v-83,0,-125,-42,-125,-125xm675,-1575v0,-83,42,-125,125,-125v83,0,125,42,125,125v0,83,-42,125,-125,125v-83,0,-125,-42,-125,-125xm1125,-1300r-375,0r0,925v0,100,-67,150,-200,150v-133,0,-200,-50,-200,-150r0,-925r-375,0r0,1000v0,217,129,325,387,325v258,0,388,-67,388,-200r0,175r375,0r0,-1300","w":1300},"\u0131":{"d":"0,-1300r0,1300r375,0r0,-1300r-375,0","w":575},"\u00a0":{"w":600}}});
